 1.16804168e-02 2.70633958e-02 2.32112221e-02 -1.20277200e-02 -1.59938931e-02 -2.49817465e-02 8.96867365e-03 1.55547559e-02 5.85159659e-03 -1.81332231e-03 8.62875953e-03 4.54270840e-03 -3.44321094e-02 1.26518710e-02 -1.54953375e-02 2.20732372e-02 -3.28238830e-02 1.21571794e-02 -1.94445811e-02 1.11353360e-02 -1.72527023e-02 9.89032537e-03 3.70054320e-03 -1.73189100e-02 3.22739519e-02 1.41376890e-02 2.99088918e-02 -1.04236007e-02 2.69071199e-02 -1.35850105e-02 3.12095918e-02 -2.67644115e-02 -4.45617996e-02 3.43284599e-04 2.10909243e-03 -1.54697075e-02 -5.86219728e-02 -5.12000695e-02 -2.58410126e-02 -5.07773422e-02 -4.80211414e-02 -8.24632198e-02 -1.16963759e-02 -4.37661372e-02 -3.55059393e-02 -5.54482341e-02 -3.22072767e-02 -6.40598908e-02 -1.28227845e-01 -1.40980989e-01 -3.14158387e-02 -4.77203503e-02 -1.04709137e-02 1.96820125e-03 -1.98658556e-04 -3.25644799e-02 2.72513963e-02 1.99386179e-02 -6.12540357e-02 -2.12251414e-02 -2.41695829e-02 -5.73684927e-03 -3.22369784e-02 -1.17906174e-02 2.08641440e-02 1.37970857e-02 3.83201726e-02 -1.04293078e-01 -1.74844250e-01 -2.10933253e-01 -2.42060333e-01 -1.24216370e-01 -1.74990520e-02 -2.92986352e-02 -1.47301527e-02 6.07622415e-03 3.84929008e-03 -7.61437640e-02 -5.16471500e-03 2.44185477e-02 3.51377251e-03 1.29214106e-02 1.45197585e-02 -3.06341872e-02 -1.10109374e-02 -3.52941938e-02 -3.30277644e-02 -1.30253015e-02 -5.17586321e-02 -1.29808895e-02 -4.55131344e-02 -1.58783104e-02 4.60045002e-02 -4.65638898e-02 9.87040177e-02 1.67522598e-02 -1.07642293e-01 -3.09447080e-01 -2.31686473e-01 -4.45159897e-02 -1.39568269e-01 -1.71642393e-01 -7.24219456e-02 -9.89152193e-02 -5.11558875e-02 -4.09345366e-02 -7.02387691e-02 -2.03716452e-03 4.82454523e-02 -2.49727964e-02 -2.43179165e-02 -2.04431172e-02 -3.42941582e-02 5.47538623e-02 -1.04425978e-02 7.12212250e-02 -3.02808620e-02 -6.25611618e-02 3.08252424e-02 -1.44092152e-02 -1.10235445e-01 -1.83041096e-01 -9.01722983e-02 3.29086185e-02 1.90717038e-02 -5.54758571e-02 -1.17115512e-01 -9.67723578e-02 -1.59044430e-01 -3.45878676e-02 6.44131675e-02 1.44396285e-02 -5.05663343e-02 -6.87453747e-02 -4.15913947e-02 -3.93800735e-02 4.37017716e-02 9.36159026e-03 1.63470842e-02 4.22909111e-02 -5.62446564e-03 -1.05240401e-02 -6.84320321e-03 -3.68413366e-02 -6.85032159e-02 -2.31641196e-02 -7.17493370e-02 -7.24346414e-02 -2.99468022e-02 -8.37667584e-02 -3.54293250e-02 4.75247577e-02 1.44380346e-01 1.15161926e-01 -1.50174443e-02 -5.11760488e-02 -6.03654236e-02 -4.19935472e-02 1.99546777e-02 5.56794554e-02 7.50219543e-03 -5.11012934e-02 -1.06207892e-01 -1.36310577e-01 -5.73301166e-02 -1.25407949e-02 8.73621926e-03 -8.42613354e-03 -3.50594409e-02 5.01098968e-02 2.57688109e-02 -4.20544809e-03 -1.11016771e-02 7.67956302e-02 2.93326546e-02 4.93699759e-02 -5.49649186e-02 2.63738353e-02 -1.34990308e-02 9.46922451e-02 1.56029418e-01 1.55891091e-01 1.29437521e-01 4.79318947e-02 6.96414709e-02 3.05122486e-03 8.99042527e-04 2.02514399e-02 6.06234595e-02 3.81667763e-02 -1.01056537e-02 6.42925873e-02 4.92534675e-02 1.15463905e-01 4.98200208e-02 -9.52346064e-03 3.62897031e-02 1.13223530e-01 3.82467918e-02 4.60355282e-02 4.30188002e-03 6.84817806e-02 7.03193545e-02 -2.92283837e-02 -3.76349874e-02 -1.07570542e-02 3.14055011e-03 3.24572586e-02 6.45907968e-02 1.03801988e-01 4.47920822e-02 8.88819993e-02 -1.04761533e-02 -1.03411023e-02 4.32301499e-02 3.95264514e-02 6.97194934e-02 6.01757057e-02 -1.93648264e-02 4.02571745e-02 1.45088080e-02 1.02724195e-01 8.39248821e-02 1.14408706e-03 -1.36626631e-01 6.80457875e-02 5.33769792e-03 1.19856074e-01 2.49100383e-02 2.39287745e-02 8.75443369e-02 -4.59263474e-02 -2.79905181e-02 -3.40961479e-02 -1.50756221e-02 1.32204574e-02 -1.20695801e-02 6.08311817e-02 9.56546217e-02 5.17410263e-02 3.35217081e-02 -1.31308138e-02 8.15762281e-02 1.75566897e-02 6.83002621e-02 8.92869458e-02 3.11549231e-02 3.50020379e-02 -5.55087216e-02 -7.13686040e-03 5.20638190e-02 6.15315698e-02 4.52709459e-02 1.54390380e-01 2.83429734e-02 7.48389214e-02 2.33837217e-03 3.00034173e-02 7.57634863e-02 -3.97240072e-02 -8.86924006e-03 4.49966900e-02 4.25477885e-02 4.28093150e-02 6.53315857e-02 5.37340753e-02 1.13043755e-01 3.24878655e-02 -1.89574212e-02 -2.62170974e-02 5.75694256e-02 6.01006523e-02 1.04086481e-01 2.97093634e-02 2.66951825e-02 1.18397111e-02 -1.38204634e-01 4.47588526e-02 5.28646335e-02 4.18658070e-02 4.23993655e-02 9.05135497e-02 5.43569289e-02 3.81688625e-02 3.09652220e-02 3.05373836e-02 7.38106966e-02 -5.34760300e-03 3.77127668e-03 8.39674100e-02 3.16274054e-02 -7.83949532e-03 -3.43911466e-04 -1.66136725e-03 3.68360616e-02 1.06730638e-02 7.80549552e-03 -4.78383936e-02 1.49168447e-02 5.81538640e-02 9.39690769e-02 1.57910194e-02 -1.60317253e-02 -3.40423472e-02 -7.16052353e-02 9.17322114e-02 2.55801417e-02 -9.05929059e-02 -9.77142528e-03 -1.17782563e-01 7.14155659e-02 8.58813375e-02 2.41987165e-02 7.45396912e-02 9.85260457e-02 3.60152684e-03 -5.82660176e-02 -8.67473334e-03 1.47830723e-02 7.00006187e-02 2.38048527e-02 -2.08191783e-03 6.78594932e-02 4.91765253e-02 -4.55355719e-02 -4.26152907e-02 -8.78734048e-03 5.63538112e-02 -4.01126407e-03 -1.01520838e-02 -1.98184922e-02 -6.80310652e-02 -1.46532292e-02 1.29011134e-02 6.09067641e-02 -3.16702761e-02 6.86989799e-02 1.71064008e-02 1.24669708e-01 9.68142822e-02 8.39428082e-02 8.96432474e-02 4.41707522e-02 3.71068344e-02 5.34461401e-02 -3.52854356e-02 1.32517526e-02 1.94784682e-02 3.17491852e-02 -3.77529338e-02 4.75974418e-02 6.07941188e-02 -2.32594572e-02 3.56705822e-02 3.66976373e-02 4.40628342e-02 7.62043521e-02 3.11245695e-02 -1.83000229e-02 -3.62606980e-02 -6.91037402e-02 -8.45601782e-02 1.66077935e-03 -1.17339622e-02 -7.77120218e-02 -2.77534546e-03 9.14947093e-02 5.36573902e-02 4.17727605e-02 3.55948173e-02 2.56338366e-03 2.64598951e-02 5.93307801e-02 2.92385295e-02 5.34540415e-02 -1.63574726e-03 2.91409828e-02 3.10318805e-02 3.35392393e-02 5.91681749e-02 2.77315900e-02 7.20207840e-02 3.84406857e-02 -3.02047608e-03 2.56050453e-02 -2.71465648e-02 -3.36726345e-02 -1.02137409e-01 -1.70174837e-02 -1.41434595e-01 -1.37889370e-01 1.63867213e-02 4.80755931e-03 -2.47006305e-03 -4.63964650e-03 -6.14775950e-03 2.18487438e-02 -6.81679323e-02 -1.61042139e-02 -2.68380567e-02 -3.07794157e-02 -5.38287871e-02 -4.13665082e-03 -7.16042565e-03 7.99085945e-03 8.15712567e-03 6.99426159e-02 9.67431441e-03 1.37329865e-02 8.08395520e-02 -1.28800664e-02 1.06574073e-02 6.18884601e-02 -3.35824937e-02 -6.47992715e-02 4.00073407e-03 -6.35470496e-03 -7.72608891e-02 2.47263256e-02 1.89442281e-02 -2.24843062e-02 -2.07129214e-02 -5.57813197e-02 6.24283329e-02 1.62845738e-02 -5.64121902e-02 -6.08241484e-02 -1.08515918e-01 -8.66382420e-02 -1.18145041e-01 -7.20196962e-02 -7.49119073e-02 -2.78048739e-02 2.11943034e-02 1.86557844e-02 2.00908091e-02 -1.71992965e-02 7.37645701e-02 8.90354905e-03 1.45748025e-02 7.31224418e-02 -1.86564401e-02 1.30031537e-02 1.02965077e-02 5.38489744e-02 -7.50383809e-02 -3.29001695e-02 3.34691592e-02 3.44268531e-02 2.44312584e-02 -3.78280319e-02 2.28902735e-02 -3.64371836e-02 -8.14775452e-02 -4.65779342e-02 -1.33082584e-01 -1.36653185e-01 -9.23071653e-02 -1.10961281e-01 -7.99499825e-02 -3.70058008e-02 5.27224839e-02 1.95327010e-02 1.52287930e-02 1.25511009e-02 4.97943424e-02 -4.03783396e-02 -1.00087374e-02 7.34047145e-02 5.44972494e-02 2.86884960e-02 2.86683533e-03 4.48679231e-04 -5.35538457e-02 1.84338484e-02 3.33898515e-02 -2.69952416e-03 1.79425552e-02 -6.12390935e-02 5.55230565e-02 -1.80883501e-02 -7.16712698e-02 -1.18499231e-02 -5.58768436e-02 -5.31408787e-02 -2.23706104e-03 -4.50501107e-02 -7.73602575e-02 1.72634479e-02 -5.50222956e-03 -6.25033490e-03 7.77206523e-03 5.29097430e-02 1.39138838e-02 -1.63562763e-02 -1.43541778e-02 -1.78648066e-02 -5.43792034e-03 3.29894782e-03 -1.71098001e-02 4.94535528e-02 -1.32246651e-02 8.28549713e-02 7.27884993e-02 6.00280240e-02 -5.81752090e-03 9.71792173e-03 6.58899471e-02 -3.53673496e-03 -2.91535147e-02 6.52109236e-02 -1.05056148e-02 6.73735095e-03 -5.79861216e-02 -2.38791332e-02 -2.93139033e-02 -5.17430790e-02 -2.33573839e-02 8.89469869e-03 8.15934986e-02 7.04056844e-02 -2.38594804e-02 -6.48383377e-03 -1.54920174e-02 -1.03457533e-01 4.35532443e-02 2.42808890e-02 2.78150085e-02 5.25604561e-02 -1.03019454e-01 9.89187658e-02 -2.71435473e-02 -7.61679281e-03 1.66329909e-02 7.11474149e-03 2.39727963e-02 -1.78944375e-02 1.47778718e-02 2.99507827e-02 -5.61894663e-02 4.70535364e-03 -7.20577985e-02 -3.94421145e-02 -6.23890832e-02 -3.04445717e-02 -2.33548041e-02 3.62020843e-02 -8.75678472e-03 -9.72203258e-03 1.21809933e-02 4.22696210e-02 1.81775726e-02 -2.82941945e-02 -4.51579094e-02 2.63300668e-02 6.14737570e-02 1.07839838e-01 -9.18517709e-02 -1.28931170e-02 -5.76400140e-04 -2.99140234e-02 -2.50578579e-02 -5.80177791e-02 -7.08138896e-03 -5.76266795e-02 3.62257697e-02 5.87257072e-02 -4.33549546e-02 -4.09324281e-03 -5.43353288e-03 -9.84868556e-02 -7.53032491e-02 -4.25296500e-02 1.89290792e-02 7.13575957e-03 -4.51366790e-02 -4.15204838e-03 3.62445600e-02 -4.25173528e-02 4.88401055e-02 8.63837171e-03 -4.75634485e-02 -4.11809012e-02 5.12358472e-02 1.77888528e-01 1.11691877e-01 -1.09883696e-02 6.86546555e-03 -2.29783747e-02 -3.88632305e-02 4.60455082e-02 -9.52256992e-02 -1.69860590e-02 4.89153117e-02 1.27158435e-02 -2.32869517e-02 4.05522063e-02 -5.07824942e-02 -4.27347003e-03 -4.43079136e-02 -7.73718813e-03 -6.50739297e-02 -2.36857776e-02 -5.07184528e-02 -3.01927645e-02 2.94354092e-02 3.75573300e-02 2.73089041e-03 -1.05338894e-01 9.14654415e-03 -4.59924340e-02 1.10254467e-01 1.83265254e-01 1.05162427e-01 -7.57849142e-02 2.75601875e-02 2.12438889e-02 -3.66486758e-02 5.16269393e-02 -6.38686866e-02 5.53442575e-02 -7.14980885e-02 -6.61458150e-02 -1.11452835e-02 3.99076529e-02 6.32463545e-02 -2.23828629e-02 -4.52496037e-02 -3.52542428e-03 -5.95132150e-02 -1.54314665e-02 -3.64757255e-02 -7.82122090e-03 1.29967080e-02 2.04426572e-02 -1.85606647e-02 -5.32876328e-02 -7.10187629e-02 1.04660884e-01 1.56635940e-01 1.50958881e-01 6.66574985e-02 -5.76854758e-02 7.16379518e-03 1.39757469e-02 1.23848096e-02 1.53772952e-02 7.16048554e-02 1.02955932e-02 -9.37598571e-03 -8.86790976e-02 -2.92598307e-02 6.39343932e-02 3.85428034e-02 1.53243914e-02 1.56571679e-02 -5.44405216e-03 -3.88581455e-02 1.39290644e-02 2.10270528e-02 6.40963390e-02 6.26564547e-02 3.96733265e-03 -1.17162932e-02 1.43089639e-02 9.23166350e-02 1.24974251e-01 1.43670470e-01 2.07552850e-01 8.57300460e-02 -4.72803563e-02 -2.06562802e-02 -2.92982943e-02 -2.71796938e-02 -9.67786822e-04 7.80994445e-02 7.29803145e-02 1.04821119e-02 3.92415971e-02 5.09320572e-02 6.16025478e-02 -3.25866835e-03 3.00690290e-02 6.69055134e-02 8.90465379e-02 1.59196660e-01 9.64617282e-02 1.88121572e-02 -1.37787452e-02 -2.43887678e-03 8.59519094e-02 1.23293251e-01 9.88815501e-02 1.47681996e-01 1.42446950e-01 1.28200606e-01 1.10840388e-01 -3.20617594e-02 -3.82083729e-02 -3.52005549e-02 -2.34027896e-02 4.16906923e-03 -2.23040730e-02 4.11681347e-02 6.96600303e-02 1.00685418e-01 8.70778114e-02 6.26080334e-02 -4.42016013e-02 -4.09530737e-02 6.09850250e-02 1.02784052e-01 8.20386633e-02 1.39866695e-01 1.14317618e-01 2.63586920e-02 9.15948972e-02 1.69371888e-01 1.22391939e-01 5.70089221e-02 1.13418408e-01 1.73166648e-01 2.37135943e-02 4.45401520e-02 4.86310050e-02 -1.14582106e-02 -1.02190124e-02 3.38277631e-02 2.11700201e-02 1.92569904e-02 -2.49703620e-02 2.66374368e-02 2.69971360e-02 6.89958781e-02 1.15090102e-01 1.58622280e-01 9.41460952e-02 7.47054592e-02 4.07829136e-02 8.85982066e-02 1.48453295e-01 1.20209105e-01 6.93712011e-02 1.57445092e-02 -7.86130026e-04 1.15253344e-01 1.04306251e-01 6.26148060e-02 1.36525661e-01 1.42849654e-01 6.15787730e-02 6.24831989e-02 1.58106014e-02 9.84888673e-02 -3.23904753e-02 -5.91916218e-03 1.42653733e-02 -8.64943117e-03 -1.16152465e-02 -1.60360392e-02 -1.01962015e-02 5.55079579e-02 2.44032983e-02 1.39180934e-02 5.06432429e-02 4.22483422e-02 6.00720383e-02 3.71560291e-03 1.57380272e-02 7.36600459e-02 1.12285733e-01 5.96024618e-02 4.65820879e-02 8.17996785e-02 7.49682859e-02 5.23269325e-02 4.95670140e-02 1.11886680e-01 1.03743590e-01 2.70062480e-02 -1.30526181e-02 -3.82862240e-03 -3.48636508e-03 3.31414677e-02
-2.15698741e-02 2.49269642e-02 1.90453939e-02 1.08394101e-02 2.01783925e-02 2.10758895e-02 -2.83438917e-02 -4.67994437e-03 -2.92686448e-02 9.14262235e-03 1.61245950e-02 2.11954266e-02 -1.95981618e-02 6.53989719e-06 9.67274699e-03 -2.24694423e-02 -2.06866860e-03 2.46866271e-02 -7.62131065e-04 4.68964502e-03 2.05663666e-02 -1.50632616e-02 2.55269706e-02 3.44648398e-02 1.98525563e-03 4.44496423e-03 -4.28041816e-03 2.99403407e-02 -2.30482966e-02 -1.92846954e-02 -1.61252972e-02 -3.12431939e-02 4.74086497e-03 6.70529753e-02 -6.84127677e-03 -4.98411991e-03 -6.43499717e-02 -1.32806197e-01 -4.16040793e-02 -1.85463540e-02 -2.49643624e-02 3.17927860e-02 2.56644990e-02 -1.86788011e-02 -5.27971201e-02 -7.53777176e-02 -3.83571684e-02 -7.55068287e-02 -4.73376513e-02 -6.17695972e-02 -7.97090381e-02 -1.12083089e-02 2.82815062e-02 -3.40448692e-03 -5.28863072e-03 -1.11620389e-02 -9.47809219e-03 -1.79852173e-02 -8.72942284e-02 3.50373946e-02 4.89691943e-02 2.78417468e-02 -3.21100205e-02 -5.45405746e-02 -1.22822160e-02 -5.49837463e-02 -1.14519656e-01 -1.35494351e-01 -1.14026502e-01 -1.18372649e-01 -9.87432748e-02 -4.99839745e-02 8.41349438e-02 1.01267070e-01 4.47556004e-02 9.05065890e-03 -1.69435218e-02 -2.22417191e-02 6.86235121e-03 1.23595688e-02 2.02334505e-02 -4.55850130e-03 -1.13344118e-02 -5.09859808e-03 3.46185602e-02 1.14102289e-03 2.83658747e-02 1.52436839e-02 -8.39458127e-03 -7.71142170e-02 -8.84281024e-02 -7.37996474e-02 3.84092145e-02 6.20832108e-02 1.65085390e-01 2.41676062e-01 1.42655551e-01 -7.13934079e-02 -2.04857171e-01 -1.04328066e-01 1.93208028e-02 6.01988472e-02 1.35950699e-01 1.24107167e-01 1.57052100e-01 2.75282059e-02 -3.54792811e-02 -1.52383104e-01 -7.72711858e-02 -3.11492793e-02 2.89107747e-02 4.72700223e-03 9.21443105e-03 6.55779243e-02 5.39753065e-02 5.49243316e-02 -3.76998633e-02 -7.77032152e-02 1.23842470e-02 7.72260427e-02 1.90323535e-02 4.66258265e-02 1.62840426e-01 2.01955870e-01 8.78506377e-02 2.41095126e-02 -2.75857002e-02 5.31517975e-02 -4.88984808e-02 -5.03355823e-02 7.05408379e-02 7.86440447e-02 1.06952088e-02 -9.08412039e-02 -8.12946334e-02 -1.01435408e-01 -1.98260248e-01 -1.90983027e-01 1.79433804e-02 -1.60473660e-02 -2.40412019e-02 2.85809599e-02 1.58437975e-02 -8.24528746e-03 -5.22110797e-02 3.70050855e-02 6.85154796e-02 -1.15798069e-02 -5.50496113e-03 -3.48195918e-02 -2.23031491e-02 -5.69422059e-02 -4.68218559e-03 2.16614525e-03 6.29254952e-02 2.97407061e-02 5.82590625e-02 6.07005495e-04 6.93275034e-02 7.25942552e-02 -5.48038930e-02 -4.42250483e-02 -6.01079613e-02 -8.09593722e-02 -4.27672379e-02 -2.50581261e-02 5.77263609e-02 -4.89501469e-03 2.89624743e-02 6.21680953e-02 9.34670791e-02 5.62440455e-02 1.19369733e-03 -9.53729916e-03 -1.03177950e-01 -8.21290314e-02 -7.11034536e-02 -6.14235923e-02 1.24086672e-02 1.20854750e-02 -2.86830086e-02 5.71547449e-02 1.31423557e-02 7.86520317e-02 2.59991940e-02 -1.45444758e-02 8.17236211e-03 -3.04623879e-02 -7.48666376e-03 4.99938093e-02 -9.35187340e-02 -1.58019036e-01 -6.59454474e-03 -2.16436815e-02 -1.44107137e-02 5.31283617e-02 8.96298513e-02 1.06331840e-01 -5.71743865e-03 7.53097236e-02 -7.95651898e-02 -4.49215993e-02 -7.79075250e-02 -3.65929008e-02 -5.11044748e-02 -2.04554666e-02 5.60080074e-03 3.49686593e-02 2.19337139e-02 -5.68606146e-03 -3.12098558e-03 -7.78470235e-03 2.11270601e-02 1.53630739e-02 -3.75155695e-02 1.85914747e-02 -1.03523349e-02 -5.31137409e-03 -1.35915503e-02 -7.56942928e-02 3.37779559e-02 8.62520412e-02 3.42671527e-03 9.73558798e-02 1.54417604e-01 9.32880417e-02 -6.23437576e-02 -5.15296236e-02 -1.06520563e-01 -8.77794847e-02 -3.72642092e-02 -4.41729836e-02 -4.54800464e-02 -6.57917336e-02 3.30587216e-02 -3.64455231e-03 -1.31509053e-02 -5.08275628e-02 -2.73720063e-02 9.66951530e-03 -9.91070177e-04 6.08092062e-02 3.59106832e-03 -3.64466533e-02 6.52435329e-03 -2.29397733e-02 -2.59305984e-02 -1.27534285e-01 -6.33329898e-02 4.00057323e-02 1.19301034e-02 6.31361753e-02 1.53039554e-02 1.01688817e-01 -8.39907601e-02 2.56203879e-02 4.83936863e-03 -8.18298012e-03 -3.10158227e-02 5.31578949e-03 5.30887907e-03 -2.90992688e-02 -6.44319039e-03 -3.24580893e-02 4.42210808e-02 3.81216258e-02 -3.01833060e-02 1.66690201e-02 8.44519958e-03 8.27115253e-02 9.36123580e-02 6.56362101e-02 -3.45538231e-03 -6.36718376e-03 4.09322605e-02 -8.70151147e-02 6.49492666e-02 1.07108131e-01 -1.72276292e-02 -1.20157814e-02 4.58144322e-02 6.00381941e-02 4.70616817e-02 5.97663131e-03 3.29419933e-02 5.95300458e-02 3.64124426e-03 2.31294939e-03 4.83340546e-02 -2.12041233e-02 1.02174552e-02 -4.86326516e-02 2.34208466e-03 -1.50931422e-02 -5.08465134e-02 2.35508848e-02 4.58297171e-02 1.19037971e-01 1.34454280e-01 9.03336629e-02 6.90270737e-02 3.33435200e-02 1.91464890e-02 -3.50384414e-02 5.16252220e-02 1.14119403e-01 5.18877022e-02 -1.62111614e-02 1.02170438e-01 7.27436468e-02 9.21704713e-03 -7.77138919e-02 -1.38924057e-02 6.14766497e-03 8.46259817e-02 -4.55896184e-02 -4.15181704e-02 -6.67579174e-02 1.39095797e-03 5.18765040e-02 5.39886206e-02 4.02044207e-02 -5.16528077e-02 3.65591832e-02 -2.80848257e-02 8.26107934e-02 6.18964359e-02 3.67453471e-02 3.70637029e-02 1.99744832e-02 1.98512617e-03 1.09717874e-02 -6.32095188e-02 -1.35014011e-02 7.39217922e-02 -3.14690433e-02 1.54531687e-01 1.05585037e-02 -8.11601430e-02 -1.25729099e-01 -6.86024204e-02 8.59938636e-02 2.54493412e-02 -5.53048775e-02 1.16864992e-02 -8.54095630e-03 9.32881832e-02 5.07855229e-02 1.06761307e-01 7.87536521e-03 -3.42721529e-02 -1.37533556e-04 2.87675243e-02 -4.16093878e-03 2.83441637e-02 -2.44667917e-03 2.70537362e-02 3.44847441e-02 4.07412425e-02 -1.30103678e-02 -1.28494184e-02 6.42171502e-02 7.77045637e-02 -5.89743257e-02 -8.73811319e-02 -2.35081986e-02 3.90119944e-03 -1.63517848e-01 -1.30949402e-02 7.22466037e-02 4.82242554e-02 5.18530346e-02 6.11026622e-02 3.72265466e-02 1.03808708e-01 7.60828182e-02 4.67536226e-02 -6.24116659e-02 -5.74969947e-02 -9.44816023e-02 -3.07903830e-02 -4.30880906e-03 4.42105122e-02 7.17461258e-02 -6.36619842e-03 2.45507490e-02 4.82260436e-02 3.35524976e-02 5.85227236e-02 -3.93173024e-02 3.26793119e-02 -2.89219879e-02 8.26353952e-03 -1.49005873e-03 1.74866039e-02 -1.00303352e-01 6.31675944e-02 5.77495806e-02 3.79251763e-02 1.11866474e-01 7.75196627e-02 6.88511506e-02 7.51470122e-03 -5.95457964e-02 -6.11779140e-03 -1.36526227e-01 -7.26806447e-02 -6.14995435e-02 -2.23274510e-02 -2.92225294e-02 1.29295914e-02 3.17490585e-02 9.70360711e-02 4.18708734e-02 4.22836617e-02 1.40192779e-02 3.41218375e-02 -1.55775864e-02 -6.57214522e-02 -1.34882992e-02 -2.37904433e-02 2.46761553e-02 3.36782597e-02 -8.28615576e-02 1.41978219e-01 6.66446909e-02 5.31624258e-02 1.08501822e-01 4.42993045e-02 -3.17144170e-02 -4.24088389e-02 -1.05194613e-01 -1.63036257e-01 -1.29180193e-01 -1.16775386e-01 -3.50069292e-02 -2.40309350e-02 -8.05418938e-02 -8.40702802e-02 1.58638768e-02 9.89269912e-02 1.26046658e-01 -1.04298489e-02 1.48473606e-02 5.73929362e-02 2.18736064e-02 5.04042804e-02 -3.77644673e-02 3.23060192e-02 2.39771716e-02 4.33741063e-02 -7.87486658e-02 1.53955162e-01 2.37117317e-02 -9.70434099e-02 9.05918032e-02 -3.87453176e-02 -1.27437592e-01 -1.23641126e-01 -1.59537882e-01 -1.25953168e-01 -1.24254912e-01 -1.38650879e-01 -5.82310073e-02 -3.08061130e-02 -6.52616248e-02 -5.61313592e-02 -9.96709522e-03 8.63241926e-02 6.06615283e-02 7.84362573e-03 5.41935265e-02 6.27822578e-02 2.83420202e-03 -3.87924500e-02 4.46429029e-02 -1.59958694e-02 -1.07037872e-02 7.75768422e-03 -1.36734061e-02 6.10277057e-02 5.09386100e-02 -7.83421025e-02 1.99190583e-02 -2.86522880e-02 -1.12448849e-01 -1.44757390e-01 -1.83315322e-01 -1.30890548e-01 -1.63245320e-01 -1.07989945e-01 -8.85470584e-02 -4.73053157e-02 1.23872831e-02 2.20756512e-02 1.38966348e-02 -4.24089395e-02 -2.46688891e-02 2.28470434e-02 -2.21994631e-02 1.43216729e-01 -1.32903829e-01 -7.51686096e-02 7.77919441e-02 6.87533766e-02 -5.42635564e-03 -1.01225879e-02 -1.07205562e-01 -6.74085505e-03 -2.05498524e-02 -1.55830905e-02 -3.53164934e-02 -1.54926293e-02 -4.41561267e-02 -6.49271905e-02 -9.98902246e-02 -1.25280172e-01 -1.35961726e-01 -6.42399937e-02 2.06595547e-02 1.26004172e-03 8.75805244e-02 4.23482507e-02 4.54411954e-02 -1.11339688e-02 7.31938658e-03 7.22932890e-02 5.11677228e-02 8.01737681e-02 -1.30625859e-01 -8.09523016e-02 -4.18675542e-02 -5.38604632e-02 5.75933009e-02 1.00742318e-01 3.93996835e-02 1.18124835e-01 2.45417617e-02 3.10165919e-02 -5.63913491e-03 1.61144428e-03 2.47579236e-02 3.26028652e-02 5.95097356e-02 2.55718343e-02 5.23280259e-03 2.43245307e-02 4.71234098e-02 1.61572993e-02 3.99397798e-02 5.61857410e-02 3.94387404e-03 -2.69776974e-02 -4.64240611e-02 6.35144301e-04 1.62394512e-02 1.22576810e-01 -7.52691105e-02 -3.14604379e-02 -3.47990766e-02 -1.76144298e-02 4.90521193e-02 6.23802692e-02 1.02531664e-01 1.16085343e-01 2.15581190e-02 3.90140824e-02 1.47661045e-01 1.17000081e-02 1.26651367e-02 9.34671015e-02 9.29209366e-02 1.09917060e-01 9.86504182e-02 8.78163278e-02 4.03086506e-02 -5.56218904e-03 7.33833294e-05 8.97678826e-03 -2.39716023e-02 1.81840565e-02 -3.20678130e-02 -6.85176104e-02 -3.76468673e-02 -6.74552247e-02 -1.18532218e-01 -2.54905466e-02 3.25426199e-02 -4.95129004e-02 3.78186209e-03 3.39983478e-02 3.73707488e-02 -3.92380543e-02 1.94041408e-03 3.23930867e-02 4.68485281e-02 1.73267704e-02 5.91741875e-02 3.35278697e-02 5.46332970e-02 1.03202991e-01 9.43352208e-02 2.50104312e-02 3.95164918e-03 2.62602977e-02 -1.15595357e-02 -4.21295036e-03 3.04967277e-02 7.23502636e-02 -1.09162778e-01 -4.53408398e-02 -7.07370713e-02 -6.93850145e-02 -8.54928344e-02 1.26586378e-01 5.75687438e-02 4.37606731e-03 2.00280789e-02 2.09586266e-02 -1.14335567e-01 -1.84609205e-01 -7.47480020e-02 7.56092742e-02 9.20965075e-02 1.95640288e-02 6.93111168e-03 5.53991012e-02 5.04854880e-02 4.52956557e-02 2.86454950e-02 -5.86760789e-03 6.14965893e-02 3.88347246e-02 1.05821341e-01 3.71619053e-02 -1.36893168e-02 -5.02543189e-02 -8.00701380e-02 -8.15040618e-02 -6.57645334e-03 -1.12284482e-01 -1.12220183e-01 7.23993704e-02 8.68452042e-02 3.38440388e-03 1.80497654e-02 2.82866638e-02 -2.66172756e-02 -1.02955647e-01 -4.48585525e-02 4.81870696e-02 7.31020421e-02 3.72206382e-02 4.76444401e-02 3.52051742e-02 2.76448131e-02 1.27887353e-02 1.90396309e-02 4.14742604e-02 -1.11756595e-02 1.90562792e-02 -2.96703889e-03 -6.76114531e-03 -6.03269413e-02 -5.95525317e-02 7.15215206e-02 -1.82953887e-02 -1.37683377e-01 -3.59115899e-02 8.26792605e-03 -8.86319578e-03 -2.34211683e-02 1.14721991e-02 1.31424963e-02 2.23606341e-02 1.12047285e-01 7.51040457e-03 1.52109742e-01 7.12596998e-02 6.04961701e-02 1.52327446e-02 1.58749074e-02 -2.36436799e-02 -4.78889048e-02 1.63289290e-02 3.01149301e-02 -3.51554081e-02 -5.52306473e-02 -1.29781179e-02 4.00024466e-02 4.06851768e-02 -6.76984899e-03 -3.17327604e-02 5.39743230e-02 -2.10010726e-02 -6.95883930e-02 5.81348464e-02 -4.95108552e-02 -1.26706194e-02 -3.77577171e-03 4.23892960e-03 -2.10480317e-02 1.42483134e-02 -7.60661298e-03 1.13856919e-01 1.01339500e-02 -2.84942370e-02 4.42061834e-02 1.75775029e-02 -2.85682478e-03 -1.82447173e-02 4.58384752e-02 6.77327588e-02 1.45429239e-01 1.52431559e-02 -1.11729845e-01 -8.44554752e-02 -9.71872136e-02 -5.40215373e-02 8.88417736e-02 1.14951171e-01 1.11526422e-01 6.16992190e-02 4.67439461e-03 6.74423501e-02 -4.36580880e-03 -1.04481159e-02 9.17634740e-03 4.44697216e-03 -1.88097153e-02 -5.18900156e-03 1.62081458e-02 -2.18526483e-01 -1.95720032e-01 -1.45083100e-01 -1.12787679e-01 -2.83935908e-02 -1.39386117e-01 5.82006387e-03 1.51156366e-01 1.27535164e-01 1.00638270e-01 3.66805643e-02 1.47905266e-02 1.01491511e-01 5.36167845e-02 -3.67633514e-02 1.04985088e-01 1.55986011e-01 1.14653364e-01 1.37577608e-01 5.87056018e-02 8.88947323e-02 1.61877796e-01 9.31657851e-04 1.11900903e-02 9.76994634e-03 -1.19953882e-02 -4.15009260e-03 1.00800283e-02 1.18129879e-01 2.70922273e-01 1.28166527e-01 8.83686319e-02 4.83783223e-02 6.19972833e-02 8.78393576e-02 -7.42561519e-02 -7.10295280e-03 6.20334744e-02 -1.93409324e-02 -1.50594236e-02 -6.16007447e-02 4.25270088e-02 6.18602298e-02 -2.26196125e-02 4.95793335e-02 1.23294227e-01 1.34361282e-01 5.06959818e-02 2.64180489e-02 -7.27344863e-03 9.99356061e-03 -1.46328565e-02
 2.64622532e-02 -1.94522440e-02 -5.34446351e-03 2.87437625e-02 -3.18836384e-02 1.70551203e-02 3.53439525e-03 -9.61076468e-04 2.64278203e-02 8.82912427e-04 6.78208470e-03 3.56907584e-02 6.68265596e-02 3.53249609e-02 -2.45486796e-02 -2.07616538e-02 1.10966489e-02 1.57799199e-02 1.65680833e-02 -1.14621613e-02 2.26449966e-02 -7.19334371e-03 1.47955194e-02 -5.50176948e-04 2.85411142e-02 6.00274652e-04 2.11879984e-03 6.60227984e-03 2.75536291e-02 1.76237449e-02 -8.84203427e-03 -2.79314667e-02 9.78191011e-03 3.08940243e-02 -4.75371256e-02 -1.34509588e-02 4.82253789e-04 -2.73072423e-04 6.31384850e-02 4.04789336e-02 3.47966664e-02 -1.26915546e-02 -1.41766910e-02 1.32862804e-02 7.49523491e-02 3.18441987e-02 5.07564284e-03 -9.62444395e-03 4.58840700e-03 1.58735998e-02 -2.18424685e-02 -2.08899984e-03 -3.55960056e-02 -4.49863076e-03 5.52431867e-03 2.86213495e-02 -2.76638940e-03 3.22865322e-03 -3.76952738e-02 -4.42323834e-03 2.10557636e-02 8.03691894e-03 2.49752346e-02 -1.70418862e-02 -3.38994116e-02 -1.18969850e-01 -8.85419026e-02 -1.79491173e-02 3.54772136e-02 -6.66327626e-02 -6.64559752e-02 -2.56731315e-03 5.61219454e-02 1.30455911e-01 1.31052732e-01 4.50658500e-02 7.94810150e-03 -1.98177025e-02 -6.91551249e-03 -1.47628868e-02 -3.05383513e-03 -2.62758806e-02 -1.61442906e-03 -3.46562788e-02 -2.29413994e-02 1.75209083e-02 -1.22482419e-01 -7.41940066e-02 -7.02651823e-03 -1.68340858e-02 -6.91674501e-02 -8.44187886e-02 1.72644481e-02 8.30184296e-02 8.19065273e-02 7.72031099e-02 -4.87063732e-03 7.67363086e-02 1.07569546e-01 1.83057100e-01 1.64684206e-01 1.76987872e-01 1.64164349e-01 5.92773147e-02 9.87439305e-02 1.37918130e-01 9.31876376e-02 3.77048999e-02 1.91934500e-02 5.11329714e-03 4.76573175e-03 1.92784555e-02 2.51039416e-02 -7.40578100e-02 -1.15506679e-01 -4.45680693e-02 -5.27913012e-02 -6.19641617e-02 -4.25558388e-02 5.24529964e-02 -2.06469651e-02 1.01615377e-02 -6.96428865e-02 -8.15404300e-03 2.49329545e-02 4.49674837e-02 5.02124764e-02 5.60020320e-02 1.29597083e-01 2.14826241e-01 1.39668211e-01 2.29349911e-01 2.11981118e-01 6.72226027e-02 1.58903107e-01 3.53994071e-02 6.21156432e-02 3.34679056e-03 -2.82658860e-02 -5.48348725e-02 -1.78993773e-02 -2.07251906e-02 -2.93491781e-02 -1.27896760e-02 -4.11840864e-02 -5.17829247e-02 2.29062028e-02 -2.06283703e-02 -7.06042051e-02 -4.22804058e-02 -2.39597494e-03 -3.56383808e-02 -3.23153473e-02 -2.08583530e-02 1.87104344e-02 -2.62509603e-02 5.76967970e-02 7.98750073e-02 7.15797171e-02 1.68770701e-01 2.20599130e-01 6.57666177e-02 1.29598141e-01 7.04443678e-02 4.00534496e-02 2.92863604e-02 7.45104067e-03 2.69407164e-02 -8.20046291e-03 -3.76872867e-02 -4.93206130e-03 -6.68713078e-02 -7.21312761e-02 3.01813837e-02 2.43577100e-02 -5.63601255e-02 -1.93718635e-03 -3.94406058e-02 7.30158761e-04 -4.60921414e-02 -1.87286139e-02 -2.23011151e-02 2.78815161e-02 -2.81923842e-02 -4.47365716e-02 7.52728246e-03 6.04853332e-02 1.92875504e-01 2.15411097e-01 8.65885913e-02 9.96291786e-02 5.98851070e-02 2.33857725e-02 4.91743572e-02 2.18531676e-02 3.78585346e-02 -8.99819881e-02 -1.51576757e-01 -6.00786842e-02 -1.01492055e-01 -8.11974853e-02 5.21681160e-02 -4.59330082e-02 -1.60141308e-02 3.25204730e-02 -2.03375015e-02 1.43663269e-02 -7.22341333e-03 -1.58491116e-02 -3.03380620e-02 -6.69380277e-02 -9.47300047e-02 -9.89727527e-02 1.62613150e-02 1.07376777e-01 2.42044419e-01 2.17109382e-01 1.13565907e-01 1.55884206e-01 4.13472690e-02 6.68695420e-02 4.11363803e-02 5.60408533e-02 3.48680839e-02 9.43112522e-02 -1.36563286e-01 1.30645093e-02 -5.06658033e-02 -7.15025887e-02 4.53009754e-02 2.27999873e-02 2.46852878e-02 2.20732503e-02 4.90961112e-02 -1.40906516e-02 1.25980496e-01 6.27376325e-03 -2.61209775e-02 -4.26901281e-02 -1.43994480e-01 -1.45414218e-01 -1.80373732e-02 9.95008722e-02 1.73731640e-01 2.29392752e-01 2.03670025e-01 1.65307656e-01 1.42035782e-01 1.22562766e-01 6.71861097e-02 6.58037141e-03 2.03335378e-02 -4.59758192e-02 -1.32705212e-01 1.54063012e-02 -6.91897199e-02 -5.73563315e-02 -7.99598694e-02 2.13300865e-02 -1.61662940e-02 1.60818249e-02 4.64648232e-02 1.22700259e-02 5.00977412e-02 -1.69729646e-02 -4.75606918e-02 -9.61318091e-02 -1.67899355e-01 -1.43761322e-01 -2.31954474e-02 1.28508419e-01 1.99455470e-01 2.99952716e-01 2.42317230e-01 1.19207285e-01 1.45722315e-01 -5.90845430e-03 -4.30113375e-02 -2.39666756e-02 -1.06806397e-01 -3.62897851e-02 -8.39241371e-02 5.39557748e-02 -1.05695717e-01 1.79735087e-02 -5.19924909e-02 -3.85302082e-02 -2.92165168e-02 1.24715324e-02 7.64050484e-02 2.03191247e-02 5.35048023e-02 -2.72953454e-02 -8.70463904e-03 -8.83378536e-02 -9.10723805e-02 -1.00916751e-01 1.46532070e-03 8.00502822e-02 1.54092535e-01 1.51964486e-01 1.48386180e-01 7.24713877e-02 4.69393842e-02 4.56919149e-02 6.98024705e-02 -4.69497740e-02 -4.87331487e-02 -2.48709768e-02 3.21130119e-02 -1.48783103e-02 -1.48471922e-01 -2.93295532e-02 -1.24754403e-02 6.77277241e-03 -3.58295031e-02 -5.48244035e-03 -3.95190939e-02 -4.33615521e-02 -5.53365201e-02 -1.67783182e-02 -6.65264111e-03 -3.93982045e-02 -5.52341118e-02 4.83478419e-03 -5.16934274e-03 4.06905785e-02 8.52492079e-02 5.46108037e-02 9.32067633e-02 4.25328948e-02 3.45789939e-02 2.28094533e-01 1.46469742e-01 1.21256582e-01 -5.53438701e-02 -9.75532904e-02 -1.76344234e-02 -3.10872365e-02 -1.09659187e-01 1.21318493e-02 -2.50998745e-03 4.75762226e-02 4.17615920e-02 -3.22767347e-03 -4.44480516e-02 -5.65914661e-02 1.46476561e-02 3.58703057e-03 3.16158608e-02 -6.96756020e-02 -3.48479226e-02 -6.15371503e-02 1.60633642e-02 1.40407318e-02 4.61340286e-02 5.33837788e-02 5.31537645e-02 1.92788262e-02 1.07764728e-01 1.11204021e-01 8.02196003e-03 6.10081255e-02 -9.78482589e-02 -8.14919472e-02 -7.41992844e-03 -4.46855277e-02 -1.36289611e-01 1.27383405e-02 6.80819750e-02 5.58423139e-02 4.55088988e-02 -1.87271591e-02 -4.12919000e-02 3.99506278e-03 -1.45099256e-02 3.66907343e-02 -5.54295368e-02 -2.78926734e-02 -5.56152277e-02 -8.43656510e-02 -2.33468898e-02 -7.39843622e-02 -1.11443056e-02 8.18495974e-02 6.86183795e-02 4.74297367e-02 6.29854873e-02 1.74370557e-02 -6.79717213e-03 8.71213991e-03 -5.95533587e-02 3.54940891e-02 1.76383872e-02 -5.15391491e-02 -1.64916933e-01 -5.86513756e-03 7.24925101e-02 6.19632415e-02 9.09388214e-02 4.18201797e-02 -1.46637280e-02 1.34101873e-02 8.62100050e-02 1.62763987e-02 -5.45867998e-03 -2.00801995e-02 -2.86192670e-02 -1.51705956e-02 1.59050412e-02 -5.54373749e-02 -4.54799458e-02 4.50215302e-02 9.07399580e-02 3.42499949e-02 -4.64867502e-02 1.12683624e-01 -4.38324511e-02 -1.71129718e-01 -1.27808321e-02 2.18550768e-02 1.26085458e-02 -9.76184476e-03 -4.66603152e-02 2.78511010e-02 9.74003375e-02 9.39646885e-02 1.08072802e-01 3.67902331e-02 1.03132324e-02 7.40540177e-02 7.42915124e-02 8.21177363e-02 -4.51419838e-02 3.46434931e-03 -1.77482814e-02 -3.16519290e-02 1.22202635e-02 -4.67057116e-02 -2.83701234e-02 -6.18615150e-02 2.26887204e-02 -9.61740986e-02 -6.64010793e-02 3.37120295e-02 5.55267520e-02 -1.82958730e-02 -3.09311002e-02 -4.32453342e-02 1.69582814e-02 -1.73367616e-02 -3.21835726e-02 3.18035148e-02 1.25531331e-01 3.97111848e-02 -1.09922085e-02 -3.08714584e-02 -8.42028931e-02 -1.84251349e-02 -7.29362946e-03 1.15236770e-02 -1.96637195e-02 1.21327285e-02 2.32953276e-03 1.94633380e-03 5.20985760e-02 1.08454432e-02 6.15940522e-03 2.60985084e-02 4.36693504e-02 -9.95880365e-02 -8.78033713e-02 -8.01759511e-02 -2.91602015e-02 -1.67575255e-01 -1.36041883e-02 1.97065920e-02 -3.52622895e-03 -4.76556458e-02 4.10531200e-02 2.66618542e-02 1.40754089e-01 4.34093401e-02 6.51037022e-02 6.46030605e-02 5.27708195e-02 3.72688798e-03 -8.00530799e-03 1.66130532e-02 -5.34510948e-02 6.08975962e-02 1.73391066e-02 1.17067266e-02 3.01102493e-02 5.79855125e-03 -1.06655601e-02 1.68557800e-02 4.57118228e-02 -4.61247750e-03 -3.76335555e-03 5.17096482e-02 -5.24712354e-02 -8.04719776e-02 4.70595583e-02 -1.05382472e-01 1.33946026e-02 -8.41567367e-02 -2.34701429e-02 -2.62091402e-02 8.81472453e-02 2.45633665e-02 2.93634087e-02 9.71877798e-02 1.04040332e-01 -7.82461185e-03 -4.86471467e-02 6.80166995e-03 2.17186175e-02 8.45001563e-02 4.77024429e-02 -1.91384163e-02 3.87250260e-02 2.02675108e-02 -5.48608452e-02 -1.45148893e-03 2.31824555e-02 -9.84999537e-03 9.90337357e-02 1.50480852e-01 -5.05473129e-02 -5.17440848e-02 -5.84078953e-02 -9.74722765e-03 -3.97185981e-02 7.29439734e-03 -1.29336240e-02 -2.75875423e-02 4.98766117e-02 1.04286641e-01 1.66026615e-02 1.13172881e-01 9.45171565e-02 5.85973449e-02 9.03213862e-03 -1.02889845e-02 6.64147362e-02 3.82573940e-02 8.14168304e-02 3.22812758e-02 2.60035116e-02 -1.38552655e-02 -3.53445597e-02 1.23806493e-02 2.57220846e-02 3.35605219e-02 3.32088843e-02 1.04124270e-01 -4.97336015e-02 -8.30677971e-02 -8.22810922e-03 1.63785964e-02 5.44047393e-02 4.45839688e-02 4.03802795e-03 -3.82605195e-02 1.32932952e-02 3.51914205e-02 -5.93674406e-02 2.27660220e-02 8.50848258e-02 8.52977857e-02 2.27637459e-02 -1.90767031e-02 3.12585868e-02 1.73385888e-02 7.90722370e-02 7.15126917e-02 2.98530255e-02 4.40855473e-02 5.10585401e-03 5.62460534e-02 7.53431171e-02 8.06006268e-02 3.85125205e-02 -4.15243730e-02 -2.19834726e-02 -2.62435954e-02 -1.29950140e-02 -3.06049846e-02 -1.66610435e-01 -3.18292938e-02 -2.35228501e-02 -1.90399997e-02 4.76060845e-02 1.05573423e-01 4.92066853e-02 9.65622778e-04 8.20228904e-02 4.40988988e-02 1.59374978e-02 2.69201864e-02 4.44791205e-02 7.46996701e-03 3.20625231e-02 6.73223287e-02 5.57082258e-02 -7.02522974e-03 -3.20848338e-02 2.29264814e-02 4.42864895e-02 6.15086146e-02 1.10001393e-01 6.56594783e-02 4.41024080e-03 -7.06213899e-03 -4.42615332e-04 -2.05195379e-02 -6.67079687e-02 -1.39824161e-02 -8.96445513e-02 -8.07449147e-02 9.43727791e-03 -4.44142930e-02 -5.65308593e-02 -4.98044975e-02 3.67994606e-02 1.98166724e-03 2.22781468e-02 5.50101548e-02 4.59371544e-02 1.00280633e-02 -2.72995699e-03 7.60211200e-02 2.96220668e-02 -4.53539751e-02 -1.94962565e-02 -6.34557754e-02 -2.61746701e-02 1.89106558e-02 5.90139180e-02 4.30760160e-02 2.55776122e-02 6.59770221e-02 -6.65567408e-04 3.07280570e-03 1.15152895e-02 -3.51516269e-02 -2.51352061e-02 -3.98578085e-02 1.90054066e-02 2.09841952e-02 2.37433836e-02 -6.52553746e-03 -6.44240249e-03 9.07246619e-02 2.48709489e-02 5.13224974e-02 1.80202108e-02 1.96423493e-02 4.74107265e-02 5.68819381e-02 -5.63154966e-02 -5.44454418e-02 -6.23690635e-02 -6.48671557e-05 -5.08519448e-02 -4.85683493e-02 4.70336936e-02 -1.57931317e-02 2.45152190e-02 -5.35952114e-02 2.22272538e-02 3.29073705e-02 -1.20513439e-02 -1.49318818e-02 2.10551061e-02 -8.31036046e-02 -3.71538363e-02 6.10866323e-02 1.13544442e-01 9.54465643e-02 1.12992138e-01 2.73225904e-02 3.74172069e-02 1.28091052e-01 1.23858832e-01 1.43998638e-01 9.56425965e-02 6.99151829e-02 -6.02141768e-02 -9.20263305e-03 -6.66898340e-02 -8.03790316e-02 -4.04578671e-02 -4.88472879e-02 1.10987024e-02 6.14449568e-02 -1.04898438e-01 -2.73112319e-02 1.63458548e-02 -7.74816982e-03 -8.42815265e-03 -3.95641755e-03 -1.24882965e-03 -3.97055820e-02 -1.25221953e-01 -2.57315487e-02 -1.81773640e-02 -8.70041996e-02 9.99550298e-02 5.95884174e-02 2.77684331e-02 -1.82410050e-02 3.64609882e-02 1.69571843e-02 8.84017944e-02 5.55187985e-02 5.17446510e-02 5.83575554e-02 3.30505334e-02 2.13850755e-02 -2.33379733e-02 6.74438328e-02 9.20780450e-02 1.10923432e-01 -4.13454510e-02 -3.63011733e-02 1.08280480e-02 1.00172386e-02 -2.39100941e-02 -1.67366099e-02 -3.78115778e-03 -3.02309021e-02 -4.84208763e-02 -3.79968993e-02 -4.15853448e-02 -1.80090964e-02 7.64318835e-03 -4.63835075e-02 -5.54989744e-03 -6.72367290e-02 -1.47751998e-02 6.90332949e-02 1.03092290e-01 -3.38536501e-02 -5.50797768e-02 -7.64560848e-02 -5.04093431e-02 -3.53606567e-02 -1.47294745e-01 -1.18374668e-01 -6.73507387e-03 -1.88537966e-02 -6.46310821e-02 4.20668721e-03 2.34418251e-02 7.13367015e-04 -1.59404036e-02 9.25016776e-03 -6.19981997e-03 -1.39384329e-01 -1.46140337e-01 -6.35896996e-02 -3.64224538e-02 -6.87294304e-02 -3.65126617e-02 -5.15629053e-02 -3.69600207e-02 -3.22126411e-02 3.76964244e-03 -7.72345215e-02 -3.60100046e-02 -6.95576668e-02 -7.17744380e-02 -2.74129696e-02 -3.70286480e-02 -6.20330423e-02 -9.71714258e-02 -5.43026440e-02 -3.57949138e-02 -1.67199224e-03 -1.71082281e-02 1.25879049e-02 -2.89998874e-02
-2.20798049e-02 1.85791440e-02 -2.33405754e-02 -2.75688134e-02 9.39766318e-03 -1.87585447e-02 -1.02933273e-02 -2.84652300e-02 9.56214219e-03 -1.24677643e-03 -5.97261079e-03 -1.83998700e-02 1.43943531e-02 -4.91718575e-03 -1.55935697e-02 -9.54266917e-03 1.81483813e-02 -3.05048842e-02 -2.83839796e-02 -8.26718099e-03 1.01981312e-03 -1.84600838e-02 6.19398057e-03 -2.19280124e-02 1.37048513e-02 2.15723664e-02 2.54101343e-02 -3.30986083e-02 -1.88832413e-02 -1.98243652e-02 2.65899040e-02 -1.60897858e-02 -1.63026508e-02 9.89178382e-03 -1.82142165e-02 1.46782082e-02 1.69758666e-02 -2.74135936e-02 -6.39107376e-02 -2.96521764e-02 -8.61700177e-02 -6.65198192e-02 -7.11760446e-02 -4.45152074e-02 3.00994180e-02 3.57392877e-02 -1.32665252e-02 -2.23095510e-02 -6.99081570e-02 -5.86155057e-02 -4.23969366e-02 -6.81777820e-02 1.40163302e-02 -2.56955996e-03 2.00750083e-02 -3.06378677e-03 -2.05283221e-02 -2.32023261e-02 -4.05696854e-02 -4.91297618e-03 -2.50022542e-02 -1.12694073e-02 2.36155204e-02 -7.08163856e-03 -2.18692217e-02 6.39057998e-03 7.49140158e-02 -8.98994040e-03 -3.51010151e-02 9.51346848e-03 3.15055950e-03 8.95214640e-03 8.53603240e-03 6.50550053e-02 9.01095569e-02 -1.02186305e-02 -3.13781388e-02 1.39273377e-03 -4.78076749e-02 2.09337864e-02 -3.37675624e-02 -2.47200038e-02 1.64251402e-03 1.61647126e-02 -1.67551562e-02 -3.46420668e-02 8.19606781e-02 -3.83534171e-02 2.23422516e-02 -7.38104014e-03 -2.45386790e-02 -8.88894051e-02 -1.24707662e-01 -3.89564894e-02 -4.40243967e-02 -7.40682259e-02 -3.46592739e-02 -5.44210821e-02 -4.73934002e-02 6.55338094e-02 7.58392811e-02 -5.81462383e-02 -1.45201132e-01 -1.23847425e-01 -6.39777035e-02 -4.02284302e-02 -3.65498941e-03 5.57216331e-02 -2.53372882e-02 -4.07141782e-02 -1.96713619e-02 5.60877472e-03 -3.19278911e-02 -9.64374319e-02 1.31371967e-03 -2.22748090e-02 -7.27960169e-02 -2.43287869e-02 -2.32366975e-02 -7.48966187e-02 -8.81501809e-02 5.34700938e-02 2.14626230e-02 2.02371851e-02 -1.64186526e-02 -1.70845613e-02 4.92199557e-04 4.00722511e-02 -2.02695057e-02 3.46301943e-02 2.31531747e-02 -6.08617812e-02 -1.06303677e-01 -9.52613633e-03 6.53027147e-02 -1.38322199e-02 -3.48399393e-02 1.67652743e-03 -6.37170672e-02 -4.15938757e-02 3.18911709e-02 3.11876945e-02 2.33627148e-02 4.22204798e-03 -3.22430357e-02 -3.45100556e-03 -4.79334518e-02 -2.07970440e-02 8.94497484e-02 1.03525490e-01 1.19227476e-01 1.06733553e-01 4.03758138e-02 7.49307275e-02 9.59443673e-02 4.25764136e-02 8.98986533e-02 7.50074759e-02 5.61028309e-02 1.08271755e-01 9.65892226e-02 4.67108935e-03 3.25055644e-02 -3.28748263e-02 -3.89481299e-02 5.19664511e-02 -2.36118920e-02 -7.97383953e-03 9.12255049e-03 -5.53586381e-03 6.00170493e-02 4.81169075e-02 -1.86485555e-02 4.09403034e-02 5.87865897e-02 8.36836174e-02 8.23806152e-02 1.22919261e-01 6.93157092e-02 -6.39761705e-03 -2.52617593e-03 2.57150885e-02 5.97145669e-02 2.62274407e-02 6.41251206e-02 -3.55934501e-02 4.99468483e-02 1.27342850e-01 1.27894491e-01 1.76966876e-01 8.01889673e-02 6.95061088e-02 8.11773017e-02 1.03722788e-01 1.87103990e-02 1.39667997e-02 8.87673125e-02 -1.60423182e-02 7.66565874e-02 1.06752813e-01 3.43218562e-03 9.82708111e-02 1.30125865e-01 6.03608899e-02 4.28057760e-02 5.19403070e-03 -1.09440079e-02 -6.63221851e-02 -1.46997785e-02 4.05554175e-02 -7.50886574e-02 -1.46727310e-02 4.23048623e-04 -3.94774377e-02 5.69450669e-03 4.28114086e-02 5.83182275e-02 9.81397033e-02 1.89626977e-01 1.23312749e-01 1.65026888e-01 1.15614735e-01 -1.93504617e-02 1.52516384e-02 7.46801049e-02 8.02088752e-02 2.28442214e-02 7.15763569e-02 -7.90845044e-03 1.07531950e-01 9.30923447e-02 4.27680835e-02 -1.04526564e-01 -1.11511089e-01 -1.09046318e-01 -3.85726914e-02 -8.50824523e-04 -5.70174903e-02 -5.93304634e-02 -5.16440021e-03 -3.81735489e-02 -3.71394493e-02 -2.92529613e-02 -6.75019855e-03 -6.13891669e-02 -5.27769886e-02 1.04733355e-01 2.39151537e-01 1.67075053e-01 1.27451820e-02 1.79088749e-02 9.43024270e-03 2.39519831e-02 7.27563575e-02 7.68193379e-02 6.21755086e-02 -6.50133416e-02 2.33996343e-02 1.67864468e-02 -8.92135035e-03 -6.95708394e-02 -1.26525417e-01 -6.83174282e-02 6.51888642e-03 4.09239456e-02 -1.66559368e-02 -9.69398767e-03 2.04476267e-02 -3.80574837e-02 -4.92125973e-02 8.78936553e-05 -4.80418652e-02 -6.36367276e-02 -1.29748266e-02 4.66344729e-02 7.25320503e-02 9.88997519e-02 1.33189084e-02 3.08629218e-02 1.17170915e-01 -9.57905781e-03 1.32276602e-02 6.29553422e-02 5.31472936e-02 -1.45071540e-02 1.02164865e-01 1.10431589e-01 3.25445980e-02 -2.75906064e-02 1.64281297e-02 4.35050242e-02 5.30634522e-02 2.66611483e-02 4.12365831e-02 4.12243903e-02 9.75587964e-02 1.24721322e-02 2.35023107e-02 -1.86296320e-03 -3.75481062e-02 -1.54660810e-02 9.99350101e-02 4.08514030e-02 4.77192514e-02 1.65370941e-01 6.93328157e-02 7.01580420e-02 2.93342825e-02 4.76845875e-02 8.40390846e-02 1.06653562e-02 3.81533541e-02 -2.53016222e-03 1.23689018e-01 1.07306838e-01 5.21006845e-02 1.99761484e-02 5.68320490e-02 6.47179335e-02 1.13115292e-02 3.44556719e-02 -8.77619535e-03 2.64757015e-02 9.24596563e-02 3.67702097e-02 -2.31304429e-02 -2.21508760e-02 -4.82840426e-02 -4.44341153e-02 -7.42108654e-03 7.36243054e-02 1.07555807e-01 2.11602971e-01 1.55686468e-01 4.30450588e-03 -1.17252057e-03 1.01470269e-01 3.33737843e-02 5.52635491e-02 2.87942924e-02 1.78951677e-02 5.76150306e-02 6.68690801e-02 1.62088603e-01 1.17276765e-01 9.94067937e-02 1.06941059e-01 7.51276612e-02 3.53821740e-02 -2.35892385e-02 -3.58418711e-02 1.13132931e-02 3.54404305e-03 8.42690468e-03 5.78283519e-03 -5.43334410e-02 -1.60207048e-01 -2.79077105e-02 1.09053239e-01 8.01741406e-02 1.32436216e-01 1.96973220e-01 1.47245347e-01 7.92191997e-02 -1.35746926e-01 -6.77093491e-03 8.42768103e-02 6.00937046e-02 5.25366329e-02 1.36429798e-02 2.37688497e-02 3.37890200e-02 7.06852749e-02 7.76331872e-02 5.11653125e-02 1.10548995e-01 4.09076139e-02 -6.36369660e-02 -2.65219510e-02 -7.61435553e-03 -3.15761156e-02 -1.40146911e-02 1.58741288e-02 -1.10816695e-01 -6.29218593e-02 7.14167161e-03 1.09893806e-01 6.25248104e-02 2.05187976e-01 1.93263948e-01 2.33798146e-01 5.02947308e-02 5.25862835e-02 2.93981973e-02 5.58440685e-02 -3.28834727e-02 5.73310219e-02 7.51693100e-02 6.59690276e-02 5.33658862e-02 6.07037917e-02 1.96525734e-02 7.68625811e-02 4.43486273e-02 -6.57303631e-02 -3.00403554e-02 -1.99619830e-02 -3.26276384e-02 1.67770069e-02 3.61564681e-02 1.84089027e-03 -2.32303832e-02 -4.09632213e-02 7.90620819e-02 1.86079115e-01 1.43470556e-01 1.35541856e-01 8.09722990e-02 1.17871366e-01 9.31345578e-03 5.49743511e-02 -2.74879783e-02 1.56667717e-02 4.45813723e-02 1.05250672e-01 1.37293294e-01 1.10865250e-01 7.79688656e-02 2.06855591e-02 2.48469580e-02 6.88873827e-02 -4.05353261e-03 -7.72896633e-02 -4.51212749e-02 -1.53066241e-03 1.53531563e-02 -5.58820069e-02 2.38351393e-02 -1.23960245e-02 -3.78594808e-02 -3.04901022e-02 7.35526681e-02 1.38759926e-01 1.89307883e-01 1.38555437e-01 6.56156242e-02 6.14476539e-02 1.34523679e-02 -1.78395808e-02 -5.49953431e-02 3.29167098e-02 6.18013851e-02 8.83152038e-02 9.54792798e-02 1.24084800e-01 5.08240722e-02 -8.22003279e-03 1.47097735e-02 -1.64265968e-02 -1.65504903e-01 -5.03457934e-02 -3.90940532e-02 -3.15178819e-02 -3.25280838e-02 -3.73012647e-02 6.26476780e-02 -6.83505554e-03 7.15567358e-03 3.93529572e-02 1.35380089e-01 1.43127784e-01 1.29184276e-01 9.19679999e-02 1.16039515e-01 1.29508674e-01 5.03665768e-02 -1.46965086e-02 -4.41354662e-02 2.99243871e-02 2.37369630e-02 9.03894007e-02 1.68319881e-01 1.57182634e-01 4.87471409e-02 6.91040009e-02 5.43858297e-02 2.22183634e-02 -6.20378852e-02 -5.46391159e-02 -3.01126726e-02 -1.47135807e-02 -1.81626081e-02 3.63408239e-03 6.17129393e-02 5.65445377e-03 2.42658798e-02 2.65199263e-02 7.60284960e-02 9.14021507e-02 1.25115111e-01 1.13727093e-01 1.33007467e-01 8.31988230e-02 2.32498813e-02 3.91291641e-03 -4.70417663e-02 1.33840004e-02 -4.09212746e-02 5.50461076e-02 1.16164498e-01 1.82348952e-01 1.95775092e-01 1.79311857e-01 4.53412235e-02 -5.72014302e-02 -2.51853410e-02 -2.16852650e-02 -5.79103231e-02 -5.83976693e-02 -1.61229800e-02 2.75475103e-02 1.83438975e-02 -1.15591066e-03 4.28074151e-02 1.02128640e-01 4.59821746e-02 8.76310021e-02 1.30442619e-01 1.30572900e-01 5.23882434e-02 6.71727881e-02 1.19230216e-02 -8.84776860e-02 8.43826458e-02 -1.45266866e-02 2.24648565e-02 -7.48755457e-03 2.31989194e-02 3.99576649e-02 7.99451843e-02 2.11183697e-01 1.20802626e-01 6.44819811e-02 2.23518275e-02 -1.63922403e-02 4.18129638e-02 -5.36292158e-02 2.96415836e-02 1.04009844e-02 8.56864359e-03 2.93428004e-02 5.28965108e-02 6.65903986e-02 1.00004271e-01 4.48755622e-02 1.22418121e-01 3.78972180e-02 3.71144642e-03 1.30087556e-02 -4.34407704e-02 4.63184342e-03 2.89243143e-02 3.47301317e-03 1.20556243e-02 -8.49719495e-02 -7.82987028e-02 -1.25882160e-02 -7.72491191e-03 7.85949156e-02 7.24249557e-02 1.43258542e-01 1.35647491e-01 7.36916736e-02 4.62965034e-02 -4.87187020e-02 4.39730696e-02 -1.01268599e-02 1.51383234e-02 3.44572403e-02 7.01192766e-02 9.20164660e-02 1.78166162e-02 -1.67072155e-02 5.31294383e-02 8.48101154e-02 3.35035808e-02 6.52196035e-02 -3.49262767e-02 -4.82391790e-02 -1.04289912e-02 -3.52309421e-02 -5.60769960e-02 -5.25339916e-02 -5.22571057e-02 -7.76925683e-02 -3.10644321e-02 5.90064749e-03 4.49156314e-02 7.89853483e-02 1.44557774e-01 6.35155588e-02 2.06258092e-02 -1.31321158e-02 3.33284102e-02 4.43657488e-02 3.61392647e-02 3.75904888e-02 1.05108380e-01 -3.20044393e-03 -6.69889376e-02 -5.75029515e-02 8.43444169e-02 2.99034901e-02 7.26353675e-02 4.36219051e-02 4.14900370e-02 -8.30441862e-02 -1.17174044e-01 -3.79427932e-02 -7.79918060e-02 -1.18925072e-01 -1.47140294e-01 -1.35114759e-01 -5.90221845e-02 -7.13203102e-02 -3.89804244e-02 4.41876315e-02 7.63344169e-02 3.59028317e-02 -3.99507694e-02 2.68709939e-02 2.01974679e-02 6.65493086e-02 2.26532221e-02 5.97606935e-02 1.33909322e-02 7.60968402e-03 -4.42896262e-02 -4.31086570e-02 7.75558650e-02 9.24162716e-02 5.59882559e-02 1.03506789e-01 6.27354383e-02 3.43337990e-02 1.22485459e-02 -5.32090738e-02 -5.59046641e-02 -1.02821887e-01 -1.61661759e-01 -5.55652529e-02 3.06934360e-02 2.49052756e-02 7.71085098e-02 2.91299038e-02 2.96408124e-02 9.96091682e-03 2.93503422e-02 4.72135171e-02 6.73178732e-02 9.48095918e-02 3.47137451e-02 3.75385247e-02 6.82114884e-02 1.53339533e-02 3.91763411e-02 -3.94810457e-03 7.90145099e-02 4.93529476e-02 2.77024452e-02 4.73881401e-02 -1.86047684e-02 -2.14892551e-02 -1.58250220e-02 -1.26566654e-02 -1.08083852e-01 -1.62556916e-01 -1.37483254e-01 -3.95309851e-02 -9.19708982e-02 -4.16628923e-03 1.05360802e-02 4.43053432e-03 -3.86628695e-02 -5.45835905e-02 -1.97846908e-03 5.34079410e-02 4.47087549e-02 -9.10398318e-04 1.49213346e-02 -1.26960147e-02 5.48893586e-02 -1.30833229e-02 -3.82531546e-02 -6.29261229e-03 2.60833837e-02 7.27341175e-02 1.17673408e-02 1.57153490e-03 5.44108450e-04 -1.07259918e-02 -1.12323035e-02 -3.18901651e-02 1.47964545e-02 -5.84056601e-02 -6.82267100e-02 1.58094277e-03 -1.35355042e-02 -5.38994707e-02 -7.39236027e-02 -9.90358647e-03 -6.59997528e-03 -1.57078058e-01 -1.23876892e-01 -7.03118369e-02 3.90390977e-02 -2.78123803e-02 -4.45542000e-02 9.54605360e-03 3.25965583e-02 -2.54928265e-02 -6.09390214e-02 1.97089016e-02 4.09964621e-02 2.41495781e-02 -8.86762980e-03 6.91095963e-02 5.33816963e-03 -9.66539234e-03 3.13742645e-02 3.06330658e-02 6.35257317e-03 -1.15348570e-01 -1.07005708e-01 -4.28847112e-02 -1.63662396e-02 -3.10150217e-02 -1.06216550e-01 -4.21010479e-02 -5.34668490e-02 -2.02418640e-02 2.22452953e-02 -9.48782042e-02 -1.60185322e-02 -1.10846013e-02 -8.86756107e-02 -8.67113471e-02 1.66028284e-03 -6.88602775e-02 -5.80528490e-02 -1.39851160e-02 -4.33965139e-02 2.57672146e-02 8.38769227e-02 -4.36704233e-03 -3.09904236e-02 2.78724246e-02 3.17096971e-02 -3.31232324e-03 2.75842063e-02 5.30951358e-02 8.21180344e-02 -6.23497479e-02 -4.36684750e-02 -3.09919417e-02 -2.91012302e-02 1.05047757e-02 2.37695910e-02 2.71970294e-02 3.50622572e-02 -9.26306248e-02 -6.21903054e-02 1.88476071e-02 2.56917868e-02 -1.34696700e-02 -2.03879643e-02 1.64005347e-02 1.01744786e-01 5.43319359e-02 2.70878561e-02 -3.37398537e-02 -1.85902379e-02 1.79293007e-02 1.20029375e-02
 1.19050406e-02 3.38863209e-03 8.26567411e-03 -3.51425000e-02 9.13814083e-03 -2.82604918e-02 -2.59766076e-02 -3.53395864e-02 -1.28327776e-02 1.02600306e-02 3.12475823e-02 1.25533342e-03 -1.44247187e-03 1.14330342e-02 1.86402904e-04 3.19181122e-02 1.27353556e-02 -3.09610367e-03 -9.84806381e-03 1.33666173e-02 2.96591856e-02 1.39917359e-02 -9.12944786e-03 2.98861824e-02 1.33161694e-02 2.10400149e-02 2.94816457e-02 -1.58747435e-02 1.33828409e-02 5.90154156e-03 1.41194351e-02 5.84955141e-03 -9.33782477e-03 2.90904380e-02 -7.12704612e-03 -2.04657316e-02 -1.04297744e-02 -4.17542383e-02 -7.04508089e-03 -1.28213316e-03 -6.36307299e-02 -6.70620650e-02 6.65931478e-02 -1.08258367e-01 -9.31073129e-02 -1.00811929e-01 -1.62742026e-02 -8.90499074e-03 -6.99467212e-02 -5.80509566e-02 1.27876019e-02 -1.18956650e-02 -6.26750104e-03 -6.56783581e-04 3.46781947e-02 -2.18553692e-02 2.07755975e-02 -3.03552300e-02 -9.77766439e-02 -2.09874529e-02 -2.11557411e-02 -3.74672152e-02 -3.87499407e-02 -1.05972327e-02 -5.98585233e-04 4.38335650e-02 -2.25308295e-02 -2.42130761e-03 3.70993763e-02 6.30384162e-02 4.06319611e-02 3.72204855e-02 -5.32272905e-02 -4.99060452e-02 -1.02651678e-01 -5.79328761e-02 -4.79357317e-03 4.80263680e-03 -7.80805647e-02 4.40187100e-03 3.41274180e-02 -5.59973717e-03 -1.65899657e-02 1.96699686e-02 6.55054674e-03 1.38965175e-02 8.78870487e-02 -5.43869324e-02 -8.37894976e-02 -3.32004204e-02 -1.88094620e-02 -3.13095972e-02 -4.62978985e-03 7.61569664e-02 2.73843985e-02 5.36616705e-02 4.00382653e-02 -3.02168597e-02 -5.96114099e-02 6.09156489e-02 2.85392255e-02 -1.97453664e-05 -2.47268695e-02 -2.50758305e-02 -1.04227930e-01 -8.00185557e-03 -3.20559666e-02 -3.12654227e-02 2.09275000e-02 -6.46001399e-02 -8.41480643e-02 9.42754373e-03 1.66728050e-02 -6.41408116e-02 1.05341569e-01 3.90001871e-02 -4.06905264e-02 -1.21582784e-02 -1.72078493e-03 4.26158160e-02 1.70692414e-01 1.54084668e-01 1.93308711e-01 5.78880757e-02 3.14592235e-02 2.23515388e-02 -4.05959040e-02 -2.47943569e-02 -2.80902837e-03 3.29304859e-02 4.88097267e-03 1.35391206e-02 2.66863853e-02 1.36089080e-03 -3.34037989e-02 -3.43549512e-02 8.13464522e-02 5.33491410e-02 -1.01662934e-01 -2.26061717e-02 4.62653860e-03 3.21099944e-02 6.06473573e-02 2.95505226e-02 -1.48943914e-02 -7.15504512e-02 -7.19825625e-02 4.15638201e-02 8.89641643e-02 8.02636072e-02 1.05097167e-01 3.18264775e-02 2.85971109e-02 -2.64851972e-02 -3.72607224e-02 5.45053147e-02 2.05880161e-02 -8.41398351e-03 -4.02195193e-02 -4.26827744e-02 -1.83763821e-02 5.47841862e-02 4.14780565e-02 9.98661891e-02 5.06606214e-02 -3.67203951e-02 -9.98259261e-02 -6.84524179e-02 -2.81816646e-02 -3.52961794e-02 -7.46259047e-03 -7.39233643e-02 -5.97693697e-02 -5.97877689e-02 -5.62919602e-02 -3.19036692e-02 3.24403420e-02 3.65442224e-02 -4.83234413e-02 -4.04852405e-02 -1.95360221e-02 -7.52955079e-02 7.77446553e-02 6.76339567e-02 6.06406294e-02 6.35011792e-02 3.90173681e-02 -6.15577698e-02 -4.33440953e-02 3.00944559e-02 2.00121086e-02 3.38101573e-02 4.14506234e-02 5.31426854e-02 3.94453295e-02 -5.04603945e-02 -4.80565466e-02 -4.90185805e-02 1.41604869e-02 -5.07812500e-02 -3.69760394e-02 5.01381345e-02 4.87074861e-03 2.35337783e-02 8.26573074e-02 2.17588712e-02 4.90320176e-02 1.61822960e-02 -1.14741921e-02 -8.01056251e-03 3.44437957e-02 3.11848372e-02 3.36789489e-02 -3.39238420e-02 -3.35824601e-02 -5.58445156e-02 -8.03715140e-02 -7.61968689e-03 6.32382706e-02 -3.29783037e-02 -5.81324361e-02 6.04794100e-02 1.84259377e-04 -1.76656712e-02 -1.00174226e-01 3.02678403e-02 -1.34870499e-01 -7.57211819e-02 4.33980376e-02 7.29629621e-02 7.77269900e-02 7.27423728e-02 6.40360117e-02 5.21233752e-02 4.29524295e-02 7.23713264e-02 2.20805183e-02 5.50926775e-02 -1.05921123e-02 -7.75329545e-02 -3.91742699e-02 -7.44161531e-02 -3.09951417e-02 -2.65561603e-02 -1.05028056e-01 -7.12243766e-02 -2.04957891e-02 2.78572794e-02 -9.84862633e-03 1.55155212e-01 5.89825176e-02 -9.05042142e-03 -9.61855613e-03 -8.01692829e-02 -2.40796655e-02 -2.82920394e-02 6.67657852e-02 2.55560651e-02 4.67169806e-02 -1.71926431e-02 4.66149263e-02 7.60992020e-02 4.48209867e-02 3.18134725e-02 2.63873823e-02 -9.30362847e-03 -3.09892613e-02 5.04695773e-02 2.19448488e-02 -6.52303025e-02 9.15489998e-03 4.76504257e-03 -7.15350285e-02 -6.79298937e-02 -6.53700772e-05 2.46812502e-04 6.69742527e-04 -9.79428086e-03 2.62276866e-02 -1.29286632e-01 -4.02061343e-02 -2.83223130e-02 -8.18701740e-03 5.52290156e-02 -9.56269260e-03 4.33594622e-02 -1.08788442e-02 -6.00811392e-02 3.41786705e-02 4.57988121e-02 3.11246607e-02 7.49579519e-02 1.01833358e-01 -3.46230865e-02 3.03130485e-02 -5.51317772e-03 8.95988476e-03 -2.50815172e-02 -8.53819028e-03 1.57655235e-02 -5.08087091e-02 -4.14802805e-02 -6.46706149e-02 -1.19999992e-02 -5.65573387e-02 5.31940430e-04 -2.82456614e-02 -9.06441957e-02 -4.34144028e-02 -6.39728382e-02 1.31676297e-05 -7.39754885e-02 -3.52704944e-03 1.72891095e-02 -3.24192978e-02 -5.47262840e-02 -1.38143068e-02 2.97822934e-02 8.72270018e-02 4.97229397e-02 4.91113402e-03 -7.75378346e-02 -4.62939925e-02 -1.51569825e-02 1.50532573e-02 -4.63247150e-02 -4.92974743e-02 3.98918875e-02 -2.16125883e-02 2.16959380e-02 -2.88302801e-03 -4.84559871e-02 -8.20001811e-02 1.49604410e-01 -9.29201394e-02 -4.91643399e-02 -1.26868725e-01 -1.83412619e-02 -1.00211017e-01 -6.34778738e-02 1.50769972e-03 -2.49411277e-02 -4.25895527e-02 -6.82360008e-02 -7.01358616e-02 1.40728140e-02 -4.44984622e-02 2.72675436e-02 -4.60020378e-02 -3.71297151e-02 -3.66154425e-02 1.82112493e-02 7.32016116e-02 -5.80453761e-02 -3.35072987e-02 1.30566368e-02 -9.85082705e-03 3.86658460e-02 3.94487903e-02 -2.40349099e-02 -4.56532277e-02 5.25198923e-03 -4.25114036e-02 -1.16193824e-01 1.29484773e-01 6.12475676e-03 -1.01150401e-01 -2.73525100e-02 -7.29597360e-02 -2.87438277e-02 -5.16827516e-02 5.42300716e-02 -3.13835368e-02 9.18428972e-03 -3.13849212e-03 6.93250299e-02 1.78740006e-02 2.96780635e-02 7.44374916e-02 9.54092816e-02 6.69841543e-02 -4.82845912e-03 -4.34040353e-02 -4.52748388e-02 2.64565442e-02 9.96648073e-02 1.50409834e-02 -5.01057655e-02 -9.78334025e-02 -3.81405875e-02 1.12369381e-01 2.88512334e-02 1.18374377e-02 1.17906583e-02 -2.32014768e-02 -3.55026796e-02 -2.86894776e-02 -5.22426106e-02 -9.71591752e-03 3.25482003e-02 -2.24571917e-02 5.68766147e-02 1.00632422e-02 8.14840794e-02 -8.22511874e-03 5.80550171e-02 8.64467919e-02 1.02024175e-01 7.54721761e-02 -1.07016508e-02 4.50935699e-02 2.59051900e-02 3.29143591e-02 5.94412796e-02 2.91807372e-02 -4.08766642e-02 -9.27823335e-02 3.73731032e-02 6.63541779e-02 5.25160059e-02 -3.64554599e-02 2.20289733e-02 2.64452472e-02 3.56387757e-02 7.53044011e-03 -4.27625068e-02 -3.46223600e-02 -3.35215144e-02 4.00093272e-02 4.29062881e-02 1.02453433e-01 3.10317352e-02 8.38552136e-03 4.64841612e-02 9.95469987e-02 1.91193931e-02 3.95369381e-02 1.40603734e-02 1.39241945e-02 5.45131117e-02 -2.83876956e-02 1.43142464e-02 4.04672287e-02 -5.05029485e-02 -7.84604698e-02 -1.23868426e-02 1.07548185e-01 1.09092295e-02 6.31145015e-03 -3.82136665e-02 2.25267615e-02 -2.15086080e-02 -4.36420441e-02 2.39798985e-02 3.85349989e-02 7.01655895e-02 4.55553643e-02 -4.89723461e-04 2.43674666e-02 1.56531576e-02 -4.36385609e-02 -4.17470075e-02 1.00052245e-01 -2.95711718e-02 -6.67228177e-02 -1.47975087e-02 2.53955461e-02 2.23266473e-03 1.64680891e-02 7.15691820e-02 1.06832676e-01 -2.06775684e-03 -2.82985512e-02 8.78416821e-02 1.20753959e-01 -4.83223088e-02 -9.19628143e-03 9.33807250e-03 2.02314239e-02 -4.31354456e-02 2.01399401e-02 -6.96136430e-02 6.71526790e-03 3.53206880e-02 8.52176361e-03 1.69318897e-04 3.14623080e-02 -7.00923335e-03 -6.25539720e-02 2.43426561e-02 6.03303835e-02 7.23481691e-03 -1.35166794e-02 -5.47587983e-02 -3.24425027e-02 -5.65097667e-03 3.36958878e-02 1.66612759e-01 1.16047077e-01 4.16980945e-02 -1.78689677e-02 4.97161336e-02 -9.11409333e-02 -7.27557018e-02 -2.01494154e-02 -2.85141058e-02 -4.78311591e-02 3.97057533e-02 4.88345213e-02 -6.39183149e-02 5.13465926e-02 4.58232611e-02 -1.40282838e-02 -1.41090862e-02 -7.05268187e-03 -5.59099205e-02 -8.19991902e-02 6.72972873e-02 3.57550271e-02 -1.54173635e-02 -3.59958373e-02 -5.93555570e-02 -4.14979346e-02 7.28298277e-02 1.38968006e-01 1.31524786e-01 1.19572617e-01 9.72330645e-02 5.63542470e-02 3.68101895e-02 -9.24828574e-02 7.98817948e-02 -9.64126736e-03 -6.71102777e-02 4.78786742e-03 8.98760408e-02 -1.40700703e-02 -1.01737529e-01 -6.76266477e-02 3.40142217e-03 -1.03344722e-02 -1.77244935e-02 -4.95810248e-02 -8.32340121e-02 -6.57750666e-02 4.49486859e-02 3.58856358e-02 -2.81076543e-02 -4.18272242e-02 -1.86204240e-02 -1.23357587e-02 1.36469543e-01 8.08627531e-02 5.43637872e-02 1.15862824e-01 1.32111520e-01 7.66470507e-02 9.84367579e-02 2.81173624e-02 4.63276915e-02 -2.53061540e-02 -7.87199810e-02 -6.67781848e-03 4.91762608e-02 -8.50590121e-04 -1.21451691e-02 -8.77498761e-02 4.99095535e-03 2.43825708e-02 1.21987415e-02 -1.48094408e-02 -6.66726232e-02 -3.85449152e-03 -8.00396968e-03 -9.39399377e-03 -1.35713182e-02 7.34336451e-02 9.07963514e-03 1.55591756e-01 1.95410371e-01 1.76725537e-01 1.38817057e-01 1.66308746e-01 1.77766606e-01 1.17825620e-01 1.29218861e-01 6.27952144e-02 -3.21188159e-02 -2.15171967e-02 8.28710124e-02 -3.59101631e-02 1.82450432e-02 1.01806715e-01 2.30875351e-02 -6.60435623e-03 1.51830595e-02 5.79862408e-02 -1.94868874e-02 -3.45625635e-03 -8.39660987e-02 5.47558186e-04 2.10908689e-02 3.94617021e-02 3.29606868e-02 4.62383702e-02 6.87744021e-02 1.94462880e-01 1.76455870e-01 1.72340408e-01 1.10399731e-01 8.50017816e-02 1.47658288e-01 8.64645392e-02 1.01880953e-01 -8.39741528e-02 -5.04628345e-02 -6.31633075e-03 1.68035198e-02 1.68460812e-02 8.43495945e-04 1.25920013e-01 7.36152828e-02 -1.32750310e-02 -4.06024233e-02 7.45801479e-02 -4.81975041e-02 -5.99932596e-02 -3.25806774e-02 -2.52385624e-02 -2.28426009e-02 5.35087846e-03 1.18914759e-02 1.23674788e-01 2.20774904e-01 2.06303403e-01 1.19325288e-01 1.83940440e-01 1.12349875e-01 1.07192576e-01 1.28382489e-01 1.38204187e-01 5.39717339e-02 -9.17587727e-02 8.94295634e-04 4.24623489e-03 -2.89939903e-02 -7.14393705e-02 2.01856531e-02 9.67382714e-02 7.54149258e-02 3.83864455e-02 1.82687379e-02 4.61218953e-02 9.13870428e-03 4.90759779e-03 -6.16714023e-02 -3.18568684e-02 2.69851573e-02 4.07116301e-02 1.06353596e-01 2.11188748e-01 1.78384602e-01 1.47373438e-01 1.51370868e-01 1.31764278e-01 7.27586001e-02 7.09957182e-02 1.68096304e-01 6.27032593e-02 3.67915793e-03 4.64236327e-02 -1.31163895e-02 8.70488584e-04 -2.38830037e-02 -7.97761902e-02 -1.13144577e-01 -8.33483636e-02 -1.77138653e-02 -2.16913410e-02 8.96946192e-02 7.72803202e-02 5.01609966e-03 4.86209393e-02 4.14410271e-02 -4.43175547e-02 -1.02373853e-01 -5.81200700e-04 1.52590171e-01 1.15461349e-01 9.39820334e-02 1.76349267e-01 1.72475964e-01 1.32585347e-01 6.05949834e-02 1.09255798e-01 1.15210496e-01 5.36181293e-02 7.27660656e-02 3.49384546e-02 -2.31385492e-02 2.84149684e-02 -1.22074950e-02 4.39554341e-02 -2.11385302e-02 -1.23543395e-02 -1.62463970e-02 -3.58496159e-02 9.87593178e-03 2.79090684e-02 -2.00703554e-02 -1.34534677e-02 6.56261621e-03 -1.02628216e-01 9.73736960e-03 4.13145274e-02 8.68554190e-02 6.80052415e-02 5.18071018e-02 4.10973281e-02 6.35045990e-02 5.73487803e-02 9.96900536e-03 2.65686791e-02 6.47248104e-02 3.01097240e-02 5.98912546e-03 7.37061864e-03 9.69512016e-03 -3.16955857e-02 3.53555419e-02 -3.49542089e-02 2.47867927e-02 1.04218818e-01 1.16951883e-01 1.27880365e-01 8.13463852e-02 9.53208469e-03 4.19223048e-02 -1.92160215e-02 -8.63735452e-02 -4.66710366e-02 -1.21869091e-02 8.11587647e-02 1.29546463e-01 3.75582674e-03 -5.53136505e-03 1.20748999e-02 -8.36598594e-03 -1.08504118e-02 1.25798322e-02 -3.35048847e-02 -2.62949476e-03 2.10791826e-02 -1.17533833e-01 -2.29663346e-02 -2.80937441e-02 -3.01868711e-02 2.08618455e-02 -5.63375838e-03 1.04132965e-02 -4.89297286e-02 -9.16632786e-02 6.46152273e-02 3.38279433e-03 3.43575403e-02 -5.72313890e-02 -2.21344568e-02 5.40586794e-03 1.22062201e-02 -3.91440168e-02 4.46022581e-03 2.52593812e-02 -3.48864011e-02 -4.73929420e-02 4.07562964e-02 1.55572090e-02 -4.01565712e-03 -4.32026051e-02 -6.66858479e-02 -7.59906396e-02 1.98317990e-02 8.12729076e-03 1.95838697e-02 2.34287046e-02
 3.07700224e-02 5.06377220e-03 1.20138451e-02 -8.25907476e-03 -1.08716246e-02 2.58027017e-02 -2.85869595e-02 2.72949971e-02 -1.90825947e-02 1.98467299e-02 -3.25043462e-02 4.35359403e-03 5.23750437e-03 2.80275512e-02 -2.28613503e-02 -5.31795714e-03 -2.22038720e-02 -2.59846412e-02 3.06060426e-02 1.60041787e-02 3.44905257e-03 -7.38481060e-03 -1.10843312e-02 2.52431445e-02 1.88503265e-02 -3.22536752e-03 -1.17706414e-02 -1.60851441e-02 1.02316439e-02 2.34523527e-02 1.81072094e-02 -2.83605345e-02 -5.97191751e-02 -2.40450520e-02 -3.60078067e-02 -1.52604757e-02 1.09134540e-02 -2.69811787e-02 4.02708761e-02 4.42922041e-02 -1.74696408e-02 -3.55190635e-02 3.09498068e-02 -1.35953417e-02 3.49063464e-02 2.43497659e-02 -3.85324806e-02 -5.94069473e-02 -3.18327211e-02 -2.28803512e-02 -4.61374130e-03 -1.84378810e-02 -8.59403238e-03 3.22701000e-02 -3.98514047e-03 2.14805603e-02 -1.39396358e-02 -2.37206873e-02 -6.45737723e-02 -2.84784213e-02 -3.31007503e-02 -1.83421429e-02 -8.93159490e-03 -5.78245148e-03 3.95998638e-03 4.95946184e-02 1.15074804e-02 6.89294115e-02 6.52893707e-02 1.25606835e-01 1.00982569e-01 -2.24424573e-03 1.59698480e-03 -1.44048771e-02 1.74143482e-02 -4.82721301e-03 4.60070819e-02 6.09016344e-02 -7.14203194e-02 1.33598549e-03 -2.13734228e-02 4.49502170e-02 1.80526040e-02 9.33967531e-04 -3.01890131e-02 2.98995711e-02 6.58492446e-02 -1.85196735e-02 -1.32882521e-01 -2.02287957e-02 2.43908931e-02 -5.08266613e-02 1.02443948e-01 1.61353871e-01 1.80772692e-01 9.47235674e-02 3.02388910e-02 6.74886554e-02 6.54093921e-03 3.89165320e-02 6.61993073e-03 4.03911769e-02 -4.66276193e-03 6.40527979e-02 -5.47333471e-02 -4.09355983e-02 -3.98808569e-02 2.15086229e-02 -4.25351970e-02 -8.60917047e-02 -1.33509710e-01 -2.22796462e-02 2.73844637e-02 -7.40233660e-02 5.48167489e-02 -4.76913378e-02 -9.02653709e-02 -8.06765035e-02 -8.11997056e-02 4.72609513e-02 1.61617100e-01 1.68100983e-01 1.02472752e-01 5.59935942e-02 -2.74296049e-02 -1.74365509e-02 6.15350436e-03 -1.24327699e-02 7.21045444e-03 9.37309861e-02 3.24471109e-02 4.93304059e-02 3.86357843e-03 4.34030890e-02 -8.56488012e-03 -1.11347251e-01 -7.81632364e-02 -6.11506812e-02 -1.80091932e-02 -5.51552922e-02 -3.50306593e-02 -3.25523801e-02 9.13783163e-03 4.85738600e-03 2.50962190e-02 1.23434495e-02 1.21113397e-02 5.69694526e-02 1.46681974e-02 1.40474988e-02 1.60568617e-02 -5.37027158e-02 1.21466229e-02 2.65142787e-02 -1.65275205e-03 -1.76367387e-02 2.26468965e-02 -1.40110347e-02 -3.18448059e-02 -2.59446283e-03 -4.47388105e-02 -3.14333886e-02 -2.65327119e-03 -6.87696859e-02 -4.76902314e-02 3.30430754e-02 -7.94405639e-02 -5.11711128e-02 -3.23682241e-02 -1.53263519e-02 -4.36942168e-02 3.47247906e-02 -5.62902018e-02 -4.65916358e-02 2.06961241e-02 -1.76609326e-02 -5.93755692e-02 -2.51783114e-02 -5.26039749e-02 2.98834946e-02 -1.04216775e-02 -2.11766586e-02 -2.93019833e-03 -1.57465693e-02 2.76677683e-03 -3.41276601e-02 1.12774121e-02 4.37345961e-03 -7.54836854e-03 -7.55000534e-03 -5.78007065e-02 -1.69638582e-02 -3.46825905e-02 6.23665825e-02 -6.52774125e-02 1.38707897e-02 6.37534931e-02 -7.03515410e-02 -1.81331940e-03 1.31535484e-03 -6.98256195e-02 -2.07423456e-02 5.50682545e-02 1.57676060e-02 -3.50776911e-02 -7.67844543e-02 -1.56570040e-02 2.12477148e-02 4.87317890e-02 2.80427746e-02 -3.29419449e-02 -4.12909612e-02 -1.88573711e-02 -2.33275127e-02 -4.83106077e-02 -3.65705602e-02 -3.86894755e-02 5.18071232e-03 -5.27252555e-02 -7.71664679e-02 -9.19914432e-03 4.18683439e-02 -9.25508887e-02 -6.14694953e-02 -2.16687456e-01 -7.76305748e-03 1.52692236e-02 -1.30064469e-02 -2.13791747e-02 3.76711376e-02 6.38657585e-02 7.79004395e-02 3.63085903e-02 -3.97311989e-03 2.19668690e-02 9.26893279e-02 1.10251635e-01 1.19183615e-01 7.37091750e-02 4.56046835e-02 1.60339922e-02 -2.16781199e-02 1.11782640e-04 -3.48485596e-02 -1.49212210e-02 -6.48032576e-02 -8.91265571e-02 -4.05369140e-02 -2.75672637e-02 5.00310883e-02 -8.36301669e-02 -4.53231484e-02 2.92510148e-02 3.82960625e-02 1.06068999e-02 -3.19450647e-02 -4.90015931e-02 5.53248897e-02 5.07373400e-02 7.83058628e-02 1.20036176e-03 2.06671953e-02 9.79265496e-02 1.50780797e-01 9.18721706e-02 6.93665445e-02 9.63059813e-02 1.05338991e-01 4.22452651e-02 2.18110215e-02 1.19311810e-02 1.36364354e-02 5.46627492e-02 -2.49828845e-02 -4.77417298e-02 3.95540992e-04 -4.51722816e-02 6.07179813e-02 -8.83368924e-02 -6.60601258e-03 -3.41559120e-04 -2.90625240e-03 5.76152951e-02 -5.73215708e-02 -9.48490947e-02 -3.17154423e-04 1.09797798e-01 9.06913653e-02 -1.17145386e-02 -1.31158130e-02 4.38999757e-02 5.61574958e-02 2.96850316e-02 -3.29567418e-02 4.10570391e-02 6.76547810e-02 8.81835446e-02 1.31865218e-01 1.03982843e-01 4.43455838e-02 9.97675881e-02 7.97808841e-02 -1.39665408e-02 -1.10680349e-01 -1.06973656e-01 -1.06192000e-01 -2.89017474e-03 3.90542410e-02 3.14071439e-02 2.65574791e-02 3.69008966e-02 -5.20457327e-02 -1.05184972e-01 -4.95858714e-02 4.29972820e-02 5.40455878e-02 -3.67874652e-02 5.91744259e-02 3.98098640e-02 1.05261467e-02 -4.68044467e-02 -6.34754449e-02 -5.60146831e-02 -3.53429839e-02 1.25505581e-01 7.83629417e-02 9.04825255e-02 1.32651478e-01 1.12396441e-01 7.58951604e-02 1.52969584e-02 -5.97310141e-02 -4.59487438e-02 -2.33648364e-02 7.91810751e-02 4.34612818e-02 2.66535301e-02 5.07194735e-02 6.09419867e-02 1.12294793e-01 -4.19244394e-02 -3.60138305e-02 9.64620635e-02 4.96004187e-02 -2.02149153e-02 1.00018280e-02 -4.26543243e-02 -1.20892264e-02 -4.07233983e-02 -1.12459004e-01 -4.52160873e-02 8.68099462e-03 3.14803869e-02 1.59201622e-02 3.48987058e-02 1.88646093e-01 1.31006017e-01 1.76628798e-01 1.39375508e-01 5.91456518e-02 3.88345495e-02 1.76344998e-02 3.14558973e-03 6.98885173e-02 -8.50112364e-03 -1.48633244e-02 5.28157912e-02 3.28788534e-02 6.44746348e-02 -1.73108075e-02 1.11813866e-01 1.07508592e-01 -3.10561359e-02 1.52809080e-02 -3.17124575e-02 -3.51007693e-02 -7.42918774e-02 -6.16369806e-02 -2.75666937e-02 -5.17569073e-02 -7.70778023e-03 -6.40282929e-02 2.88145300e-02 4.53155860e-02 6.59346282e-02 1.60777956e-01 1.86159566e-01 2.94513237e-02 7.48047456e-02 8.94161984e-02 9.17135030e-02 1.10046389e-02 -1.78889092e-02 8.62370338e-03 7.03413086e-03 2.67391987e-02 3.14522050e-02 -9.52792913e-03 1.32659554e-01 1.80966213e-01 3.79328243e-02 4.01004143e-02 -6.65105134e-03 -4.40055616e-02 -7.34933540e-02 4.02814783e-02 2.33781636e-02 5.45040667e-02 1.06636668e-02 -3.86603968e-03 1.33829964e-02 -9.40759759e-03 1.36556020e-02 8.09218138e-02 6.58334494e-02 1.03954613e-01 -4.03846838e-02 6.39701709e-02 2.20679753e-02 6.95800083e-03 -1.49458274e-02 2.70159431e-02 -4.87748161e-02 8.60290229e-02 1.33787235e-02 2.26547234e-02 4.83627021e-02 9.94553044e-02 1.19012810e-01 1.14360146e-01 1.27997145e-01 4.66685221e-02 -9.98299010e-03 3.08935493e-02 1.06304623e-01 4.15304638e-02 2.07106732e-02 -1.92753971e-02 -7.41511211e-02 1.61373487e-03 -1.19881035e-04 3.52669023e-02 4.04786728e-02 3.88419256e-02 2.36654039e-02 5.57943434e-02 2.43359730e-02 5.41009288e-03 -8.52430798e-03 -4.56329398e-02 -5.18942364e-02 -1.49103738e-02 -1.30140111e-02 -4.15678062e-02 -8.23561847e-03 4.41147499e-02 1.54468298e-01 1.75870776e-01 1.56535417e-01 1.54058069e-01 3.98814231e-02 2.36901622e-02 1.13210477e-01 -1.84089262e-02 -1.50007950e-02 -8.14795941e-02 -4.60850410e-02 -5.66690117e-02 -1.01396367e-01 -1.47335548e-02 -2.06014104e-02 4.74312566e-02 1.08570471e-01 1.07304931e-01 5.42353988e-02 2.78986674e-02 1.18669793e-02 -1.71488356e-02 2.83393748e-02 -8.82993042e-02 -1.45375235e-02 -3.23380083e-02 4.94688051e-03 6.55757040e-02 1.05466358e-01 1.12585373e-01 1.42300561e-01 1.30228296e-01 1.22043759e-01 1.45929635e-01 6.38527051e-02 1.53013701e-02 -5.73989227e-02 -6.57098889e-02 -6.76050410e-03 1.91188492e-02 2.60736383e-02 7.19809681e-02 1.66819077e-02 1.22059606e-01 1.07531548e-01 1.16710916e-01 1.32074267e-01 4.68638837e-02 6.42226711e-02 -2.95250937e-02 -6.60244515e-03 -1.42987043e-01 -9.37102586e-02 -1.37835681e-01 -3.12195215e-02 -4.74514849e-02 -1.12358034e-01 -3.02725658e-02 -1.12131769e-02 -1.06505826e-02 -7.27039110e-03 7.97539763e-03 2.24711504e-02 -3.44501846e-02 -7.77520835e-02 1.33717842e-02 -6.13509268e-02 5.33182509e-02 1.27081886e-01 6.41706362e-02 4.73831855e-02 1.25527695e-01 1.05120495e-01 1.11814648e-01 1.13456219e-01 5.44235408e-02 -7.96361640e-02 9.65346303e-03 8.87912232e-03 -8.86256695e-02 -9.03381109e-02 -1.01208113e-01 -4.88915555e-02 -6.11789785e-02 -8.10505077e-02 -6.34107962e-02 -2.84084631e-03 2.92876996e-02 2.60136127e-02 -1.02436943e-02 -3.57742272e-02 -6.80825440e-03 4.06512171e-02 4.33211252e-02 -1.26927689e-01 2.82711163e-02 6.39089048e-02 6.22642338e-02 5.47172986e-02 3.39013189e-02 8.03178474e-02 5.26017509e-02 1.42292781e-02 1.60616413e-02 8.58750567e-03 -4.64865379e-02 5.38832601e-03 -7.27006570e-02 -9.90401953e-03 -1.17592830e-02 -4.51297797e-02 -2.34819390e-02 -5.42494729e-02 -5.43901101e-02 -1.92743130e-02 9.83494800e-04 -2.32902635e-02 -4.58907662e-03 1.79560613e-02 4.21057120e-02 5.56868836e-02 1.86020602e-02 -2.54184995e-02 3.96800712e-02 5.92429414e-02 4.25498784e-02 1.01553090e-01 -2.28175917e-03 4.05686721e-02 3.50235961e-02 2.92848032e-02 -1.86064243e-02 1.70090590e-02 3.56152356e-02 4.24187118e-03 -4.23611514e-02 -8.04685522e-03 -3.09398193e-02 1.24904895e-02 -3.33446972e-02 2.58196928e-02 2.81630084e-03 2.54814816e-03 -5.35211004e-02 -5.51965982e-02 3.43052633e-02 1.44091658e-02 2.23767962e-02 2.64174156e-02 -1.42349107e-02 7.28008430e-03 1.30670741e-01 5.77900335e-02 9.12975147e-02 1.06979392e-01 4.82861362e-02 7.79597238e-02 6.43721297e-02 1.04718834e-01 1.37356156e-02 3.12468298e-02 -1.67985000e-02 -3.03713940e-02 -6.31411467e-03 2.03167573e-02 -5.06339886e-04 9.92636979e-02 7.48545155e-02 6.74924254e-02 -7.89644197e-03 4.11282331e-02 -1.17744086e-02 2.15688124e-02 3.20232995e-02 1.29357409e-02 3.67222168e-02 -3.91051210e-02 2.43640244e-02 1.19887568e-01 5.47719635e-02 9.73701626e-02 5.98880760e-02 1.98483933e-02 2.51361039e-02 2.87336390e-02 8.29269662e-02 -4.25624922e-02 -9.62858088e-03 1.74172781e-02 -1.54429860e-02 -1.23090141e-01 -9.34976041e-02 -1.15053341e-01 -1.06606461e-01 4.47381400e-02 4.67533059e-02 4.26873937e-02 -4.39566886e-03 1.98368039e-02 2.60254852e-02 2.46361438e-02 5.77896461e-02 5.78750633e-02 -3.99518609e-02 3.29770222e-02 1.42725363e-01 1.70906365e-01 5.44590987e-02 -1.43886879e-02 5.65932430e-02 5.76099083e-02 7.03159273e-02 2.82384083e-02 1.89916808e-02 -3.27668041e-02 -2.63208412e-02 2.89364718e-02 -1.16538759e-02 -9.68867820e-03 -9.07928795e-02 -8.27784613e-02 -5.44216931e-02 6.13714196e-02 4.06108499e-02 7.82257598e-03 -3.18139605e-02 1.08661009e-02 2.65141949e-02 -2.15911008e-02 3.60909700e-02 7.03105051e-03 4.57199588e-02 1.36125088e-01 1.93815216e-01 7.94246271e-02 6.74491003e-02 6.37600496e-02 5.64337522e-02 5.67258745e-02 5.28972521e-02 2.33978443e-02 2.63875667e-02 2.54578665e-02 -8.09273124e-03 -3.54650319e-02 3.21786664e-02 3.28972824e-02 9.19821672e-03 4.91584614e-02 2.63524596e-02 -4.74293418e-02 -1.94277428e-02 -2.65226718e-02 -1.11735970e-01 -4.74916585e-02 1.76474601e-02 9.77040082e-03 -4.33542132e-02 5.37969247e-02 7.30102882e-02 9.20133442e-02 6.11526482e-02 -5.76419523e-03 -2.69124173e-02 -4.76656035e-02 -5.06487712e-02 -1.04673140e-01 5.93815185e-03 4.24446724e-02 6.27310306e-04 -2.56692991e-02 -2.48308852e-03 2.87410133e-02 -1.96326468e-02 1.97591186e-02 -1.01672029e-02 7.53008872e-02 7.25127906e-02 4.86075059e-02 1.15163736e-01 6.09990656e-02 2.29957439e-02 7.85801858e-02 5.46746142e-02 8.44387040e-02 5.84133435e-04 5.99988252e-02 2.14978438e-02 3.43076326e-02 6.42756522e-02 1.57801099e-02 2.07589194e-02 2.27363072e-02 8.01464822e-03 2.27699131e-02 -2.90622357e-02 -2.33300682e-02 6.28492162e-02 -1.23142172e-02 4.21338156e-03 -9.76758450e-03 -1.95545983e-02 5.98523393e-03 3.08724493e-03 9.94869042e-03 1.41519696e-01 5.79072610e-02 2.52773091e-02 3.96688432e-02 3.15127224e-02 -7.39891781e-03 -2.06150790e-03 2.92612519e-02 3.92977744e-02 8.58316571e-02 -1.25926370e-02 6.73535466e-02 1.12366956e-02 1.43766683e-02 6.32786229e-02 1.86952315e-02 4.81515937e-02 2.68088263e-02 -6.13118941e-03 1.88975558e-02 -2.22214255e-02 -1.91440377e-02 2.12076195e-02
 7.12087005e-03 9.61088762e-03 -3.51009183e-02 -5.51459566e-03 -2.58003920e-03 3.55488472e-02 1.23876110e-02 2.24048682e-02 -1.06824897e-02 -2.29561627e-02 -3.20638195e-02 3.31872217e-02 -2.58707441e-02 2.49055456e-02 -1.27807325e-02 2.66033448e-02 3.10200118e-02 3.23013104e-02 -9.05435532e-04 -2.27052066e-02 -5.91921434e-03 1.42264441e-02 -6.25426881e-03 -7.71013275e-03 -5.62733039e-03 4.77738678e-04 1.56615525e-02 1.64770037e-02 -2.10205838e-03 -1.01208352e-02 2.52285525e-02 -2.11434811e-02 6.32427260e-02 3.13077569e-02 3.33463997e-02 -3.12293340e-02 -1.50599321e-02 3.17655914e-02 3.20215635e-02 5.90398558e-04 8.65110778e-05 -1.74116828e-02 1.17804564e-03 4.89760600e-02 3.82802158e-04 1.51296575e-02 3.10175568e-02 4.54511046e-02 3.51681970e-02 3.33973132e-02 2.40729898e-02 3.35203335e-02 3.24401520e-02 -1.12396777e-02 -2.44282670e-02 2.47117132e-04 -9.18816775e-03 2.86395736e-02 9.02424157e-02 -2.17603091e-02 3.65174413e-02 -3.84821370e-02 -2.02159099e-02 3.29040848e-02 -3.60756926e-02 -5.41644730e-03 -6.71205390e-03 -2.68346705e-02 -1.73935294e-02 -8.61896500e-02 -6.75786957e-02 -9.00673494e-02 -4.54628542e-02 -9.82780531e-02 -9.78882238e-02 7.09519163e-02 3.27897258e-02 4.36635539e-02 8.75396654e-03 -2.10111290e-02 3.64938788e-02 5.99055225e-03 1.03940330e-02 -3.84797528e-03 -3.24180909e-02 3.15113105e-02 1.09555930e-01 8.70232731e-02 1.48561401e-02 1.86336637e-02 3.14742029e-02 2.40480881e-02 -2.75565237e-02 -5.57963271e-03 -5.57869785e-02 -3.70677151e-02 1.35154594e-02 -3.56498435e-02 -6.58309609e-02 -2.88726073e-02 -6.29236251e-02 -7.25303888e-02 4.05118503e-02 6.64493395e-03 1.15778290e-01 -2.50834562e-02 1.55449500e-02 3.52044078e-03 4.47309949e-03 1.84571259e-02 1.95206646e-02 9.69769806e-03 -5.13800606e-03 7.62040615e-02 1.34979278e-01 8.15009847e-02 1.61198452e-01 1.81422845e-01 7.68886209e-02 -2.96671316e-02 -1.02266492e-02 -8.50437209e-02 -5.12967706e-02 -1.80494729e-02 -2.93574873e-02 7.16566741e-02 5.09395525e-02 5.60556017e-02 2.04223320e-02 -1.06811062e-01 -2.15613060e-02 6.69745281e-02 1.41764525e-02 3.48788202e-02 -5.85052073e-02 -1.22090064e-01 2.96857860e-02 -6.40885308e-02 -1.67141818e-02 2.22931826e-03 5.27983904e-03 -1.59928761e-02 5.89264408e-02 4.88120277e-04 8.93183872e-02 1.60560012e-01 3.10516860e-02 -7.24531244e-03 -1.12700112e-01 -6.25613481e-02 -3.23684476e-02 -2.39214618e-02 -2.14522984e-02 -2.61478070e-02 -4.11405563e-02 -7.09656440e-03 -1.81215275e-02 -5.23363203e-02 -2.83484925e-02 1.63812339e-01 8.66371021e-02 -7.15528755e-03 2.52032299e-02 2.63403356e-02 -1.02416903e-01 -1.01451680e-01 -1.08700514e-01 3.05744093e-02 -1.49846897e-02 -7.54413242e-03 -5.66594824e-02 -8.90502110e-02 -4.23134957e-03 4.05896530e-02 -4.49790480e-03 -1.89161468e-02 3.99953686e-02 -3.67279388e-02 -4.66152327e-03 -7.87052885e-03 -6.08282425e-02 -5.93857765e-02 -7.53068849e-02 -1.01767346e-01 3.58935334e-02 6.90265149e-02 7.73808807e-02 -5.42083802e-03 -2.36399807e-02 -4.13878933e-02 -4.02201526e-02 -1.51730031e-01 -1.39886796e-01 -1.06831759e-01 4.14476171e-03 -8.90163705e-03 -1.42654747e-01 -4.80455980e-02 -6.56635389e-02 -1.15386687e-01 -3.38972621e-02 -2.43267734e-02 -8.43234174e-03 -7.00141629e-03 -5.87006425e-03 4.54412261e-03 -1.96858076e-03 1.10873142e-02 1.35903312e-02 -7.91598186e-02 -2.91464385e-02 -2.10108608e-02 3.60551067e-02 1.09144852e-01 6.37806579e-02 1.97098795e-02 6.30783364e-02 5.83315603e-02 -2.98812632e-02 -2.30287090e-01 -1.96882561e-01 -5.44481911e-02 -4.27791849e-02 1.14240646e-02 -1.21720560e-01 -6.54295832e-02 7.08909566e-03 -5.49309067e-02 3.84634621e-02 1.84049029e-02 5.36466539e-02 1.97203569e-02 1.67348646e-02 5.23566967e-03 -2.45206268e-03 -8.14801529e-02 -8.12189952e-02 -9.57255065e-02 -3.82956080e-02 6.74565509e-02 4.06116247e-03 2.02238411e-02 1.05930017e-02 -7.14884326e-02 2.66910531e-02 1.16427265e-01 -1.29110655e-02 -2.44636551e-01 -2.15964928e-01 -8.12443122e-02 1.49584375e-02 -2.74655633e-02 -1.11359693e-02 -1.08469851e-01 -2.68916376e-02 -1.53661100e-02 7.89256170e-02 5.90746710e-03 9.69260335e-02 3.68299410e-02 2.73518823e-02 5.07673342e-03 7.23626465e-02 -4.41356190e-03 -1.37379736e-01 -9.70914885e-02 1.78333782e-02 9.29234922e-02 5.28708696e-02 -5.36190812e-03 -1.50174331e-02 -2.55208928e-02 -5.69810607e-02 2.16524266e-02 -5.88568188e-02 -1.22695722e-01 -1.68477461e-01 -6.83421567e-02 -8.62171799e-02 -3.99075896e-02 -3.47058363e-02 -1.52803948e-02 -9.30047929e-02 -7.03488365e-02 2.87126414e-02 -5.61523885e-02 -3.82859223e-02 -2.81604789e-02 3.14122848e-02 -5.87206557e-02 -3.72574739e-02 -1.00917436e-01 -1.16547979e-01 -1.54641122e-02 1.21350095e-01 7.79201761e-02 7.52807409e-02 4.41950560e-03 -2.21604318e-03 -3.70785315e-03 -9.36347246e-03 -7.97284022e-02 -4.15311716e-02 -1.27227545e-01 -2.65877306e-01 2.26650573e-02 5.38454950e-02 9.84636620e-02 -2.81983893e-02 -1.42572178e-02 -1.72290690e-02 -1.25792071e-01 -5.10522835e-02 -5.76802008e-02 -9.65767913e-03 6.48019910e-02 -1.31848976e-02 -6.75244257e-03 -7.21989423e-02 -6.05303273e-02 -5.36033474e-02 1.59540474e-01 1.26456097e-01 4.60680835e-02 2.86957938e-02 5.26608638e-02 9.46836770e-02 1.62694026e-02 -2.63871718e-02 1.41348159e-02 -5.12312092e-02 -1.66230291e-01 -2.48664394e-01 -9.19236839e-02 8.75628293e-02 4.34392430e-02 -9.92451683e-02 -6.85592555e-03 -1.19288184e-01 -1.17827743e-01 -6.19813018e-02 -1.26943603e-01 6.04483820e-02 3.51418257e-02 -4.16416898e-02 9.34185088e-03 6.06090352e-02 -4.64274129e-03 5.23616038e-02 1.68362767e-01 9.22062322e-02 -6.54435251e-03 4.12208699e-02 5.42469360e-02 2.21622046e-02 -1.05877398e-02 2.46291682e-02 -7.77939856e-02 -5.60382865e-02 -4.82158214e-02 1.92945525e-02 -4.40782169e-04 -7.72421807e-02 3.34999226e-02 9.72466990e-02 -3.34811024e-02 -1.46278977e-01 -1.47588834e-01 -4.99537140e-02 -1.52658314e-01 6.96914643e-02 8.38486105e-02 6.57788664e-02 -1.44483168e-02 1.18580302e-02 -8.80585518e-03 8.40304196e-02 5.01976237e-02 2.96369642e-02 2.46484280e-02 4.00653481e-02 8.98587424e-03 9.27202962e-03 -7.44972453e-02 -5.28135113e-02 -1.21206688e-02 -5.18996210e-04 -1.16944447e-01 -1.25161886e-01 -3.38082872e-02 -6.71160668e-02 -6.07038150e-03 1.83218513e-02 -1.27973175e-02 -3.38541418e-02 -7.19608143e-02 -8.82388577e-02 -1.77792132e-01 -1.16565473e-01 6.20917566e-02 2.55977102e-02 2.23631114e-02 -4.38149720e-02 -4.29588836e-03 9.21693295e-02 1.28176594e-02 9.81590347e-05 1.95133165e-02 4.63834107e-02 1.65940868e-03 -7.45713711e-02 -9.74568725e-02 -1.01081476e-01 -5.54842129e-02 9.43060592e-03 -1.73904151e-01 -7.23419487e-02 -1.73936225e-02 -3.09099536e-02 -3.38979401e-02 -4.34522219e-02 3.91542688e-02 1.50812799e-02 -5.99678420e-03 -3.33171263e-02 -1.29324540e-01 -1.48583502e-01 -2.20422179e-01 -1.29422486e-01 -5.21586314e-02 5.82383908e-02 6.02793731e-02 7.40540996e-02 5.14027551e-02 1.42877316e-02 1.62862279e-02 6.03597499e-02 7.45640777e-04 -2.56589614e-02 -1.67655442e-02 1.54062035e-02 1.49745150e-02 6.69702515e-02 -1.85279101e-02 -4.92473785e-03 8.05920139e-02 8.83614495e-02 -3.61076109e-02 1.86061170e-02 4.34992909e-02 7.51520544e-02 1.36533994e-02 1.79455373e-02 -2.54466832e-02 -1.91542223e-01 -1.94945171e-01 -2.35882044e-01 -1.05099745e-01 -1.13263935e-01 1.91937927e-02 9.60744619e-02 7.20403939e-02 5.50797470e-02 9.33875050e-03 5.04889414e-02 -7.74224401e-02 3.40339318e-02 -5.01718037e-02 -7.90408533e-03 4.29469906e-02 -6.05063736e-02 -9.72278118e-02 3.56345549e-02 -1.63303968e-02 -2.72528380e-02 -6.26042066e-03 -8.19471106e-03 4.65282090e-02 1.44408392e-02 -4.08140086e-02 3.89381163e-02 -7.08057582e-02 -8.51191953e-02 -6.80562332e-02 -1.71324685e-01 -1.94748133e-01 -2.52306581e-01 -1.77002296e-01 -7.81210810e-02 1.55065907e-02 2.04446539e-02 1.25097241e-02 -2.35702805e-02 -4.60846350e-02 -3.00999004e-02 -6.85585961e-02 2.22072136e-02 2.05981825e-02 -1.36321053e-01 -9.67833772e-02 -1.16157867e-02 -4.12547775e-02 -5.00852354e-02 1.20322709e-03 -2.38804035e-02 4.22017537e-02 2.48029679e-02 -4.22920994e-02 -1.20216370e-01 -1.41476035e-01 -4.62548388e-03 -2.52638273e-02 -1.96650140e-02 -4.24204655e-02 -1.50970086e-01 -1.58443034e-01 -7.42059350e-02 -1.98501386e-02 1.77624412e-02 -1.65789332e-02 -1.71242394e-02 -3.73756103e-02 -8.37772712e-02 3.79418227e-04 6.82831509e-03 6.43548518e-02 -5.82537353e-02 1.65386647e-02 -5.65431602e-02 1.14809321e-02 -4.32282314e-02 4.17589024e-02 7.20121190e-02 -7.18844533e-02 -2.77195661e-03 -1.13388617e-02 -1.30548045e-01 -8.26566517e-02 -3.46200168e-02 -4.47925739e-02 -1.83364693e-02 -4.09563780e-02 -1.61181256e-01 -1.02230549e-01 -8.07888210e-02 -5.97156174e-02 4.49654311e-02 1.47249876e-02 1.19867157e-02 -3.13185230e-02 1.67432171e-03 -3.46357897e-02 -4.08059806e-02 -6.24014847e-02 -7.10889623e-02 2.01600343e-02 3.72126885e-02 1.29367113e-01 -1.13105692e-03 5.73200313e-03 2.00852007e-02 -3.89561406e-03 -2.03125440e-02 -2.49209180e-02 -1.26238912e-01 1.47090517e-02 -4.01789062e-02 4.14669141e-02 -2.29222085e-02 -2.09036190e-02 -4.28720266e-02 -9.30028558e-02 -6.54339269e-02 -4.87078987e-02 7.83057362e-02 2.98466384e-02 -3.31046730e-02 6.08606525e-02 5.36503270e-02 -4.51748446e-02 -6.66438192e-02 -8.27637389e-02 2.52571218e-02 1.52600966e-02 -1.67075486e-04 6.46649161e-04 6.54585473e-03 2.57082339e-02 -1.10096792e-02 -1.69528797e-02 3.98324355e-02 2.69899461e-02 6.87759593e-02 7.65660256e-02 6.21570908e-02 1.32847562e-01 7.60678202e-02 5.74257486e-02 7.08508417e-02 -1.66504327e-02 -3.97299491e-02 7.59640895e-03 1.25360377e-02 4.37412113e-02 5.91215258e-03 2.68879551e-02 2.73595620e-02 -1.23295072e-03 -4.94182780e-02 -1.88095216e-02 -5.88987314e-04 1.00169079e-02 6.50934801e-02 1.04870558e-01 2.46322341e-02 1.60064157e-02 7.40502309e-03 1.02106500e-02 4.59067412e-02 3.89270373e-02 4.40538898e-02 1.03423342e-01 1.05438598e-01 6.20533377e-02 5.68665825e-02 -1.78601425e-02 2.34578364e-02 4.00445201e-02 3.59730907e-02 -3.19041833e-02 4.94133960e-03 1.20328311e-02 -4.07627895e-02 -2.65218411e-02 -5.83845889e-03 2.16610096e-02 -2.52118390e-02 4.30841222e-02 -6.91605434e-02 -1.83270052e-02 4.25744653e-02 4.90276143e-02 6.61141723e-02 2.15782989e-02 3.27113084e-02 -2.97734160e-02 9.08051878e-02 9.59749743e-02 -5.92846656e-04 -1.36033138e-02 8.56081210e-03 1.04792621e-02 3.66774425e-02 4.64573428e-02 9.05026123e-02 4.51351516e-02 2.06131153e-02 5.76970465e-02 5.25261462e-02 -2.23544631e-02 -1.53062288e-02 8.96675792e-03 5.14005758e-02 -7.40054063e-03 -5.60031906e-02 8.36022850e-03 -6.41115010e-02 -9.67547596e-02 -5.95836304e-02 -4.87253889e-02 1.01079643e-01 -1.59612559e-02 1.60078965e-02 -1.81062743e-02 8.37738886e-02 1.03021324e-01 1.44698843e-01 5.10004610e-02 -1.22814268e-01 2.64579505e-02 -4.93432842e-02 -1.89079158e-02 1.30146846e-01 2.88587827e-02 -3.24559435e-02 2.28756592e-02 -2.75322646e-02 -3.32303941e-02 -2.70149298e-02 4.31479998e-02 3.44090350e-02 4.18842584e-02 -6.51836097e-02 6.90908283e-02 4.08847909e-03 1.23087503e-02 -6.67775273e-02 5.41295186e-02 8.32644477e-02 -2.94377282e-03 2.85441838e-02 1.13452971e-02 -2.17577480e-02 -5.00946715e-02 -5.87612502e-02 -5.00082932e-02 -1.11783564e-01 2.98605561e-02 1.50123358e-01 8.81522968e-02 9.28284973e-02 2.68800128e-02 6.23722523e-02 6.43508434e-02 -2.27526277e-02 -5.62657677e-02 2.57812291e-02 3.28798080e-03 -1.03448927e-02 -8.87931362e-02 -5.40236197e-02 -6.80926740e-02 1.22630307e-02 1.22418091e-01 8.54540691e-02 7.56382346e-02 -6.74098060e-02 2.04029009e-02 -3.66713852e-04 1.24376416e-02 -6.67102635e-04 1.35590658e-02 6.01695701e-02 -2.52944008e-02 -6.87508732e-02 -6.18212000e-02 -2.01229453e-02 9.23165455e-02 1.27371877e-01 7.56560564e-02 1.94449835e-02 -3.27196978e-02 6.70027286e-02 1.80758182e-02 1.47220388e-01 2.26344556e-01 1.78272083e-01 3.48011144e-02 -1.03185233e-02 -4.07858193e-02 -9.70145985e-02 1.67282056e-02 6.10977225e-02 -7.27325603e-02 -1.75284967e-03 2.89425664e-02 4.48085740e-03 -2.20157001e-02 2.86000706e-02 3.35928090e-02 -6.69760332e-02 -1.53116226e-01 -7.37264529e-02 -9.67964083e-02 -5.09907939e-02 -6.39103502e-02 -2.85303928e-02 3.92208882e-02 -8.82977247e-02 -5.44340163e-02 3.72073799e-02 4.96540815e-02 -5.97386286e-02 1.71488728e-02 1.28716573e-01 9.90669727e-02 -3.07239890e-02 -8.78203139e-02 -9.57820117e-02 -5.51878884e-02 2.37015523e-02 -1.52517483e-03 8.81218165e-03 -1.29184257e-02
-1.83137450e-02 -1.90956090e-02 3.04862857e-03 1.50572136e-03 -1.13275610e-02 -1.94321796e-02 -3.01756151e-02 2.27302872e-02 -8.45015422e-03 -7.92307965e-03 3.35403532e-03 2.71522142e-02 -7.73892552e-03 2.40858924e-02 3.88492122e-02 -2.49735583e-02 3.50086726e-02 -2.41197012e-02 -8.07727315e-03 -1.53363105e-02 1.27134360e-02 1.18910894e-03 -7.35348463e-03 1.84357502e-02 -3.20947394e-02 4.96274978e-03 -2.00391039e-02 1.19682886e-02 -3.07059772e-02 -1.58240125e-02 -1.41720399e-02 2.24334337e-02 7.40103573e-02 -7.87759572e-03 -2.00626254e-02 2.20424887e-02 -1.32896770e-02 3.78756225e-02 5.29440120e-02 3.48703451e-02 6.08127192e-02 4.26498391e-02 -4.76644821e-02 -7.23819286e-02 -7.61585832e-02 -1.15077756e-01 4.52177413e-02 3.18204127e-02 2.36001238e-02 5.34480624e-02 7.79040344e-03 4.25950699e-02 -3.07383556e-02 -2.75438055e-02 7.81862438e-03 3.10968198e-02 -3.41571197e-02 -2.90568918e-02 8.49485695e-02 -5.34055047e-02 -3.41311172e-02 4.77151293e-03 -1.06968656e-02 -3.21335066e-03 5.68433665e-03 2.84357704e-02 1.26603454e-01 1.44681424e-01 1.08808234e-01 6.89108968e-02 1.11406833e-01 1.05131246e-01 6.89164922e-02 5.89446314e-02 -6.46969453e-02 9.64972228e-02 8.42835084e-02 5.86410761e-02 4.88834605e-02 7.15426579e-02 6.15013614e-02 -2.02145148e-02 -1.12278163e-02 -1.91777572e-02 -2.72834450e-02 3.49503793e-02 -2.46932786e-02 -1.40039753e-02 6.27388805e-02 1.87206883e-02 5.38499206e-02 1.23733334e-01 1.71760336e-01 1.49529874e-01 1.58383295e-01 1.44939363e-01 7.46746138e-02 -7.09879249e-02 -4.32404988e-02 -1.35662481e-02 5.11029772e-02 9.20969620e-02 -6.90141739e-03 2.23395843e-02 -2.31250096e-02 -1.92246679e-02 -4.63931486e-02 -1.17270105e-01 -6.81692408e-03 -3.68191525e-02 1.92186181e-02 2.79394574e-02 1.77381523e-02 -8.67706537e-02 1.74789894e-02 5.26199006e-02 5.10028414e-02 8.75540078e-02 4.39618900e-02 1.04723193e-01 1.08813353e-01 6.45416081e-02 3.83030772e-02 1.72192659e-02 2.80587431e-02 -5.16103973e-05 2.93276738e-02 -1.91443097e-02 -4.36531566e-02 -3.48025523e-02 6.47712266e-03 -3.11842766e-02 -2.91387010e-02 -1.41525865e-01 -1.08913831e-01 1.44585920e-02 -5.59211746e-02 -1.31527688e-02 -4.51658890e-02 2.49383189e-02 -3.54130156e-02 2.35684551e-02 3.65092675e-03 7.12103099e-02 1.06112078e-01 -1.07197896e-01 2.13614851e-03 4.48561087e-02 -1.54105630e-02 -3.30250934e-02 1.58491638e-02 -6.08940683e-02 -1.51000336e-01 -3.91581617e-02 4.20012884e-02 3.57152894e-02 -7.45115727e-02 -8.43528882e-02 5.00484519e-02 1.55069437e-02 1.84887052e-02 1.43156480e-02 -3.67752276e-02 2.32374594e-02 -1.08754225e-02 -2.24608164e-02 9.65653211e-02 4.84611914e-02 -2.81832404e-02 5.64754196e-02 -1.93369258e-02 -1.35847852e-02 4.83729355e-02 -2.94645559e-02 6.01087064e-02 2.07224376e-02 2.47471370e-02 -6.12447336e-02 -8.42252150e-02 -1.17570594e-01 -6.85151219e-02 -1.95772480e-02 3.22588906e-02 1.85919255e-02 4.10650996e-03 -5.16186394e-02 -2.23526228e-02 -3.98745537e-02 5.17295152e-02 2.56278943e-02 -4.95006051e-03 1.77206174e-02 6.03966750e-02 3.84027846e-02 8.31361562e-02 -2.36404152e-03 -4.03556488e-02 5.48030585e-02 -4.14402895e-02 -1.10754836e-02 1.84717067e-02 1.52450725e-01 1.14646748e-01 9.24093127e-02 5.95038245e-03 -6.89118495e-03 -8.24065208e-02 -2.84415875e-02 -4.89805900e-02 6.73202574e-02 3.78842056e-02 -1.87829062e-02 1.49569921e-02 1.63162313e-02 -6.90273643e-02 -3.31589654e-02 2.62444746e-02 -1.14558032e-02 -3.44390608e-02 7.83012714e-03 2.94517316e-02 3.04368939e-02 -6.16827281e-04 5.69962263e-02 -1.51760340e-01 9.04514939e-02 -4.36219014e-03 -1.14556409e-01 -1.37384728e-01 4.83621806e-02 4.51056920e-02 -8.78928229e-03 -1.70667991e-02 -1.70334149e-02 -5.32668047e-02 -7.90171884e-03 3.99750210e-02 2.52721962e-02 1.22049423e-02 1.35243423e-02 -1.03696557e-02 -1.62288500e-03 -1.01755954e-01 -7.66047165e-02 3.79591802e-04 1.07532861e-02 -6.40978143e-02 1.72900259e-02 5.60135767e-02 3.16443592e-02 7.66450865e-03 9.93608125e-03 -6.40533566e-02 -1.75651982e-02 -8.61877203e-02 -1.06431216e-01 -6.35019839e-02 1.29221648e-01 3.54367048e-02 2.92166118e-02 -6.11261427e-02 -2.31033899e-02 -1.70880239e-02 7.33925123e-03 4.89587002e-02 -4.85327169e-02 -4.02785614e-02 6.36698380e-02 3.00337002e-02 -6.60969689e-02 -6.10458553e-02 -6.18363060e-02 -1.48056205e-02 2.85677519e-03 -2.60372851e-02 -1.44993328e-02 4.81943078e-02 3.32062282e-02 4.46006097e-02 2.45904513e-02 -6.37608618e-02 5.77154290e-03 -4.72261198e-02 3.62289213e-02 -2.81429961e-02 5.06698005e-02 9.64857712e-02 -1.16499420e-02 -1.05691202e-01 -7.05343708e-02 -5.89565709e-02 -2.06721723e-02 5.45128174e-02 -3.49929510e-03 -1.25220008e-02 1.16644576e-02 3.61397825e-02 -2.92628761e-02 -8.58562514e-02 -5.50204590e-02 -4.19128276e-02 -5.94728552e-02 -5.00846766e-02 -8.13563913e-02 -3.44650745e-02 5.51608577e-03 6.87355176e-02 4.16529290e-02 -1.05151437e-01 -3.93377803e-02 -3.02501675e-02 -9.84424204e-02 9.41728614e-03 3.39674987e-02 7.70052448e-02 -1.40521051e-02 -1.21411644e-01 -1.16957545e-01 3.65867466e-02 -1.33656850e-02 -3.81191541e-03 -1.31510019e-01 -7.51051381e-02 -2.18280051e-02 1.51425498e-02 3.33012454e-02 -1.37383398e-02 9.37212072e-03 -5.08029237e-02 -1.00626841e-01 -1.21128298e-01 -1.97419703e-01 -1.95405379e-01 -9.83262062e-02 -1.30774960e-01 5.30928299e-02 -1.00090317e-01 -5.78616895e-02 -2.66104303e-02 -6.13509715e-02 2.41266079e-02 2.42934637e-02 6.59366176e-02 -1.69884805e-02 -3.11582368e-02 -6.81958720e-02 -2.80324537e-02 -5.84197976e-02 -7.70440847e-02 -1.01950161e-01 -2.80691702e-02 -4.49617766e-02 -2.64749187e-03 -8.74484479e-02 -8.40187520e-02 -4.66388837e-02 -1.14987664e-01 -9.37585011e-02 -5.45712225e-02 -1.01917714e-01 -1.33128345e-01 -8.89719427e-02 -2.27893493e-03 6.02632239e-02 1.46968707e-01 9.08902474e-03 -6.19449168e-02 -1.44070694e-02 -6.17752736e-03 1.02393799e-01 -2.67615933e-02 -2.14089751e-02 -7.40038455e-02 -5.45567796e-02 7.74396956e-02 -4.13338430e-02 -6.69807717e-02 -1.41812805e-02 -3.34748439e-02 -8.78853053e-02 -3.61184217e-02 -1.25400387e-02 -4.68350127e-02 -3.92796993e-02 2.20828112e-02 7.19429553e-02 2.92834733e-02 5.93501292e-02 -2.50044316e-02 -2.40262523e-02 1.19866721e-01 5.11077186e-03 1.47553049e-02 2.26679351e-02 -4.81714234e-02 4.18586424e-03 5.18313386e-02 7.86921084e-02 7.18872771e-02 7.56551977e-03 -2.33260728e-02 7.65472278e-02 -1.98671259e-02 -7.83885196e-02 -7.87348747e-02 -2.79723294e-03 -1.94261260e-02 -2.23081056e-02 6.97752833e-03 -5.19040562e-02 -5.31971008e-02 -4.03486332e-03 6.69226842e-03 9.81479138e-02 6.94045201e-02 3.22465897e-02 2.54433025e-02 -1.62378955e-03 6.45048395e-02 5.62614985e-02 -3.30338301e-03 -1.72543582e-02 4.87978272e-02 8.29981714e-02 1.57150865e-01 4.14519310e-02 1.05594685e-02 5.69598787e-02 7.69825280e-02 6.03364259e-02 3.62397619e-02 -3.29977125e-02 -1.18358033e-02 -1.31570371e-02 -2.39987429e-02 -2.92341579e-02 -2.86530480e-02 -8.20006207e-02 -6.49574772e-02 -5.05849756e-02 -3.06975353e-03 -5.44998422e-03 -2.20709387e-02 -1.43449167e-02 -1.59136429e-02 -2.65158713e-02 9.66847017e-02 6.84001148e-02 1.39685452e-03 3.18983085e-02 3.72007228e-02 1.22401483e-01 1.10673606e-01 7.15601966e-02 6.77177384e-02 7.31140794e-03 4.35866676e-02 5.59715517e-02 -2.43222221e-05 -1.68848112e-02 -1.96695272e-02 -7.29133422e-03 -3.78348082e-02 1.88269478e-03 -1.68476924e-02 3.97603633e-03 -1.32894162e-02 5.70829026e-02 6.36979118e-02 3.21274810e-02 6.70762584e-02 2.69942693e-02 6.94535896e-02 3.31212096e-02 1.55136734e-01 1.15435962e-02 1.96148008e-02 1.62042547e-02 4.21576984e-02 1.11592330e-01 2.87511237e-02 9.56170559e-02 1.53714605e-03 7.30542932e-03 5.23616225e-02 7.62537718e-02 3.34574580e-02 1.58027168e-02 1.75236687e-02 3.11319996e-03 3.57740140e-03 -5.11432886e-02 -1.26258358e-02 -3.13604139e-02 8.30006227e-02 5.45554906e-02 2.66514476e-02 4.41770293e-02 5.46637811e-02 4.26192842e-02 -5.89305209e-03 -5.52434102e-03 -9.61800590e-02 -4.82476689e-02 -5.14331497e-02 1.89874656e-02 6.27815947e-02 1.22771218e-01 4.11340035e-02 -4.52888817e-05 2.87083518e-02 4.23072018e-02 9.85462964e-02 1.33700028e-01 5.74594848e-02 5.72375916e-02 8.11132714e-02 8.39310214e-02 3.10782827e-02 3.03593632e-02 1.15467003e-02 3.65427649e-03 2.13788785e-02 5.52050862e-03 5.58298640e-02 3.42568681e-02 1.29372120e-01 1.32118240e-01 8.43511000e-02 9.86665115e-03 -1.01423748e-01 6.87724054e-02 -5.83875477e-02 -8.63769427e-02 6.30799085e-02 9.68435109e-02 7.28743672e-02 -1.22220824e-02 1.32224020e-02 -2.65455935e-02 3.25878970e-02 5.70157729e-02 8.96659791e-02 1.25374928e-01 1.87846139e-01 1.49387524e-01 1.13334775e-01 5.95990382e-02 6.28285110e-02 1.33232260e-02 4.83015068e-02 3.27806398e-02 7.62984827e-02 4.88699190e-02 2.10407689e-01 1.06749430e-01 6.35064468e-02 3.36099453e-02 7.34195039e-02 3.77207026e-02 -1.74096413e-02 -9.41292569e-02 2.01044697e-02 1.48266673e-01 9.82717872e-02 1.04897507e-01 1.27641344e-02 -5.26734255e-03 4.84561957e-02 4.83888574e-02 4.77932952e-02 1.41968742e-01 9.23755765e-02 5.88068925e-02 1.30554631e-01 9.41465423e-02 8.91428664e-02 6.20547263e-03 1.13483116e-01 5.89973181e-02 6.93419352e-02 5.36683910e-02 5.99790215e-02 1.27834782e-01 1.45399824e-01 2.24429201e-02 2.72745714e-02 2.07248963e-02 6.36554882e-02 2.24055033e-02 6.47621974e-02 1.76808149e-01 4.33320105e-02 3.76326256e-02 -5.25258295e-02 -2.35974528e-02 1.04669342e-02 -4.79773339e-03 4.21483964e-02 8.70658550e-03 4.43454087e-02 3.59696075e-02 9.82707962e-02 4.39347737e-02 3.03112939e-02 4.92913462e-02 8.92013609e-02 8.89117941e-02 6.58003688e-02 2.25228779e-02 -1.73799414e-02 1.06831133e-01 3.14734913e-02 2.99627148e-02 6.46850560e-03 -9.06335264e-02 3.43397222e-02 7.82723948e-02 -7.71839637e-03 7.69373253e-02 4.62348834e-02 7.12011009e-02 -1.95423793e-02 -5.80436885e-02 -5.55579644e-03 -2.01643687e-02 -5.54610938e-02 -3.68302166e-02 -2.79449522e-02 1.07230879e-02 6.01109602e-02 2.55081654e-02 2.26772521e-02 -1.18178269e-03 7.60654360e-02 9.67159122e-02 9.28528607e-02 6.80800006e-02 5.87477675e-03 9.60611105e-02 3.21827792e-02 9.82830767e-03 3.33796325e-03 -1.14396676e-01 -2.42332611e-02 -1.33845955e-04 6.54327199e-02 4.83198166e-02 1.29627913e-01 1.29493997e-01 5.14552481e-02 -5.59891723e-02 -3.18538882e-02 -2.90235244e-02 -8.93700682e-03 6.16662018e-02 1.31576238e-02 -6.69873878e-02 -7.22389435e-03 2.10821815e-02 -3.29076424e-02 -5.85223036e-03 1.08588457e-01 1.26189828e-01 6.77864924e-02 1.01620644e-01 5.05070575e-02 8.80873501e-02 3.42835784e-02 -2.50947569e-02 1.18751802e-01 1.75837800e-02 -8.75953585e-04 1.64725408e-02 -4.35168147e-02 -1.40534891e-02 7.73499778e-04 9.77781881e-03 -4.18231152e-02 -6.52562752e-02 -1.29903018e-01 -5.47983162e-02 4.66827825e-02 3.63277644e-02 -7.62267038e-02 -6.22388199e-02 -1.04079200e-02 -5.13058528e-02 -2.60870643e-02 -1.02787307e-02 -4.48130630e-02 -1.82514954e-02 6.13060072e-02 1.04381718e-01 -1.10326642e-02 1.11436494e-01 1.10236987e-01 1.44945411e-02 4.59935106e-02 1.73783451e-02 2.58027352e-02 1.24174021e-02 -1.52654340e-02 -1.03908358e-02 -1.73719842e-02 -7.28432983e-02 -1.38046488e-01 -1.18278585e-01 -6.87087178e-02 -9.64552686e-02 -7.14213401e-02 4.56670253e-03 -6.09410033e-02 -2.71575768e-02 -2.06379835e-02 4.12830012e-03 -2.20441520e-02 -1.54905215e-01 -9.54669937e-02 -4.13896516e-02 1.24750077e-03 2.84966100e-02 1.74586475e-03 1.25814706e-01 7.89003447e-02 2.21760590e-02 4.49405201e-02 -7.20333681e-03 -1.51225086e-02 1.87878832e-02 2.80028172e-02 -2.17124280e-02 5.66123798e-02 -8.31246655e-03 1.84314735e-02 -6.91845194e-02 -1.01926714e-01 -1.11611448e-01 -1.01179287e-01 -7.92686269e-02 -1.95348896e-02 1.69832595e-02 -1.18870521e-03 9.78725329e-02 9.32861939e-02 5.98458685e-02 -7.42938593e-02 -1.52589858e-01 -1.17869757e-01 -8.44261423e-02 -5.73855564e-02 -2.98415311e-03 4.21486702e-03 -6.90602139e-02 2.07815617e-02 2.07902603e-02 2.20443942e-02 -2.49319226e-02 -5.86022250e-03 -6.20705262e-03 -1.41093224e-01 -2.30790213e-01 -8.73548631e-03 -4.59269509e-02 -2.40835883e-02 -5.51593937e-02 -2.33275276e-02 -5.06390668e-02 1.18623571e-02 -2.63894419e-03 -5.81549704e-02 -1.20615326e-01 -1.83592699e-02 -7.82440156e-02 -1.11284219e-01 -9.73567441e-02 -6.84246719e-02 -9.45584476e-02 -8.07598382e-02 -9.04341638e-02 -1.40806735e-02 -7.27342255e-03 2.12287530e-03 -1.89641304e-02
