-0.10384419 0.20151578 -0.01056016 0.05571005 -0.2788111 -0.06057727 -0.03395943 -0.03762615 0.0265427 -0.13258547 0.18253419 -0.13769567 0.05377571 0.07690705 -0.24031834 -0.15264606 0.162943 -0.12463093 0.07518257 0.02608291 0.05594436 0.1669589 -0.15084732 0.00773605 0.12193162 0.12922825 0.08295909 -0.10944127 0.35116196 0.22488007 0.00842131 0.20834625 0.09473082 0.1701143 0.01190647 -0.12995166 -0.04094574 0.02367507 0.11561931 -0.16288862 -0.08936007 -0.70169646 -0.03414254 -0.12795137 -0.1044374 0.27533743 -0.21939921 0.06128841 0.04680236 -0.16324523 -0.09369061 0.08886886 -0.34408537 0.08271424 0.16380697 0.15557528 0.27885073 0.2229948 -0.1210981 -0.06391673 -0.24516192 -0.5967388 0.25035864 0.06479177 0.23133908 -0.03971122 -0.1663659 -0.24222569 0.19191538 -0.1931179 -0.11278172 0.1350906 -0.25650224 0.13403 0.3782524 0.18006048 0.23968242 0.0807746 -0.26481387 -0.39352807 0.2038539 -0.1117148 -0.19844814 -0.20590727 0.21582335 -0.3990965 -0.11202231 -0.31580734 0.04435015 -0.43967044 0.09460649 -0.07104484 -0.03124263 -0.610537 0.10431679 0.05461727 -0.66787976 0.02628974 -0.18551797 -0.02486035 0.11185863 -0.23970373 -0.08223022 -0.14716266 -0.1789822 0.22998273 -0.12948444 0.07855488 0.1345213 -0.11451498 0.03182478 0.00802721 -0.48967817 -0.15608783 0.14781855 0.01409655 0.07539836 -0.26217982 -0.2881194 0.00436581 -0.18077733 -0.1869714 0.02804496 0.03602862 0.17556034 -0.15296753 -0.08693859 0.06661536
-0.18333533 -0.10599362 -0.13951415 -0.08620344 0.09467398 0.04225183 0.23718968 -0.02960839 0.23276946 -0.20871952 0.0501306 -0.19799918 -0.42723936 0.05737651 0.19850877 -0.37113687 -0.18099347 0.0798318 -0.20007133 0.01010709 -0.21281992 0.06243373 -0.16988699 -0.03779887 -0.19017617 0.14144757 -0.17272921 0.30098748 -0.14768575 -0.23052962 0.24967112 0.17048246 -0.02835044 -0.21147381 -0.16431214 -0.13881968 0.01380138 0.1324624 -0.23836853 -0.0656031 0.19480611 -0.27710673 -0.29721227 0.18003562 -0.55644184 -0.19028698 0.08636101 -0.21209472 0.20259395 0.21745546 0.1486281 -0.31212223 0.09037036 -0.14966826 0.18630973 -0.02255034 0.18043637 0.03389285 0.19807962 0.11137057 0.1576953 0.17633367 -0.03733211 0.02007363 0.15282233 -0.00127595 0.05937985 0.31958425 -0.32976443 0.21620098 0.03926928 0.20039742 0.0013504 -0.08230416 -0.13654114 -0.07080949 0.12912434 -0.20240384 -0.3486955 0.10899144 0.19382346 0.00237281 0.11332228 0.22833551 0.07054497 -0.4972386 0.0723001 0.27353448 -0.0755407 0.23871721 -0.21325079 -0.06066735 0.26872966 0.1187011 -0.23722042 0.4388133 -0.03642124 -0.04638024 -0.13708226 -0.22274147 0.298301 0.13069442 0.15468758 0.08107939 0.13884479 0.08035002 0.07325054 0.05716955 -0.06774073 -0.22315563 -0.37525663 0.00460846 0.34645453 0.5042086 -0.18890795 -0.3168235 -0.1562629 -0.30838767 0.05901032 -0.09507633 0.03349356 0.08571653 -0.13691787 -0.07793636 0.18892165 -0.4310135 0.20320168 -0.30396134
 0.04132255 -0.10407966 -0.15810187 0.18511768 0.18913572 0.108844 -0.49381572 0.13164657 0.02077664 0.15184619 -0.38895926 0.18079597 0.14026703 0.11243989 -0.25356317 -0.04196361 -0.18032534 -0.17659566 0.22769037 -0.28720075 0.04253848 0.12116607 0.08393584 -0.1621083 0.02730664 0.15580273 0.12138325 0.03402847 0.2459497 0.19733399 -0.3355263 0.09985107 0.09860025 -0.06465715 0.07463723 0.0316141 0.14634551 -0.34736997 0.17676602 0.03477018 0.18133745 0.00851074 -0.12330028 0.2054737 -0.07146055 -0.03571347 0.08411391 -0.63051033 -0.0101899 0.07724193 -0.03499869 -0.037293 -0.09203745 0.10373769 0.07645264 -0.35319892 0.01951969 0.11827289 0.26350686 0.13233735 0.06849623 0.33942 0.07325712 -0.616759 0.1791362 -0.3333194 -0.23323423 0.15833192 0.1281694 0.08136505 0.2286015 0.17468926 -0.30053028 -0.214581 -0.16943195 0.11999208 -0.27369478 -0.00396244 -0.4640787 -0.04661389 0.23220016 0.19738096 -0.12534086 0.09359561 0.03292702 -0.19906914 -0.00554162 -0.16555123 0.210607 -0.2504758 0.24342172 0.09867622 -0.04118343 -0.24035966 -0.17632964 -0.2732802 -0.41699278 0.15083253 -0.16872743 0.04889887 -0.22019443 -0.27809075 0.07093623 0.20736904 0.10725501 -0.02115802 0.42432812 0.19494064 -0.00798397 0.11722832 -0.16910861 0.03119845 0.07311455 -0.5943522 -0.01898748 -0.20656355 -0.39335245 0.21731964 -0.54126257 -0.22961842 -0.07239525 -0.23927431 -0.09699988 -0.18598565 -0.2589903 -0.40915895 -0.02220063 -0.13376372
 0.16999644 0.11979599 -0.20853154 -0.12325467 -0.06053361 -0.2398736 0.16436368 0.00373831 -0.3926096 -0.13478462 -0.55142385 0.12114266 -0.08434146 -0.15810189 -0.32080525 -0.3804955 0.05805929 -0.13093944 -0.31346494 0.11685065 0.2656357 -0.04932915 0.02772457 -0.07420007 0.09113766 -0.14541517 0.09084623 -0.4217917 0.30547225 -0.07153846 -0.12925847 0.20401357 0.12565544 0.09627094 -0.18405086 0.01753222 0.08323731 -0.34361953 -0.08688936 0.32085612 -0.34617049 0.09138093 0.07739692 -0.0161557 -0.6160079 -0.10852881 0.1815585 -0.02381448 0.13060008 0.05211007 -0.19138916 0.16451614 0.17428729 0.2345371 -0.12909366 0.07920289 -0.14422822 -0.42123222 -0.03406734 -0.3884325 0.15631758 -0.09484054 -0.06639121 0.1374593 -0.16835804 -0.10235284 -0.19899563 0.16478507 -0.10367323 0.21548332 -0.22642033 0.13206911 0.29983714 0.03290139 -0.26496136 0.04545134 -0.29439643 -0.16280614 -0.3217108 -0.10715882 -0.02430092 -0.0130539 -0.13447586 0.15298489 0.17530058 0.08030935 0.14625722 0.02455696 0.27898028 0.39865604 0.06383466 -0.20973352 0.09641263 0.33181036 -0.02018686 -0.45176652 0.2387248 -0.09160019 -0.12374756 0.1515969 0.08047529 0.11901355 0.03540082 0.07011592 0.10962394 0.20298609 -0.06789708 0.02121807 0.06039919 -0.03517062 -0.33044624 0.03160097 0.16091025 -0.5756337 -0.48700652 0.12237117 -0.12115127 0.18494923 0.07186504 0.09462262 0.25549838 0.15126464 0.14094421 -0.06407864 -0.02530572 0.06339733 -0.32742718 0.23656748
-0.11943219 -0.19738129 0.0420021 0.01061762 0.18760714 0.02642955 0.12461791 0.12759985 0.05716373 0.06476928 0.3005269 -0.34238365 0.27563053 -0.02495818 -0.41718894 0.12918745 0.0535348 -0.11026087 0.06529047 -0.09579957 0.2273949 0.09852377 0.03310567 0.14612213 -0.01672632 -0.11221002 -0.1917255 0.17323026 -0.3976159 -0.47240463 -0.03141903 0.14561994 0.10278211 -0.17473404 0.12927908 0.12568623 0.02822628 0.01352527 -0.1533912 -0.03715816 0.13247567 0.21525799 0.14643046 -0.36974764 0.1944322 -0.3291361 -0.10353763 0.05929048 -0.4496949 -0.2697358 -0.00262295 -0.13846333 0.17539357 -0.0649773 -0.05683642 -0.01734024 -0.08575253 0.14192933 -0.3126623 -0.6198998 -0.05099675 0.03664996 -0.45086405 0.11937888 -0.2332694 0.11962087 0.04471536 0.32038638 -0.38560262 -0.16991742 0.13943394 -0.1378932 0.14340891 0.0153279 -0.08514855 0.02017563 0.1871348 0.11917896 -0.7017815 0.1359851 -0.20130353 -0.14898501 0.15416737 0.10779745 -0.12897718 -0.65876144 0.14981666 0.07471486 -0.20207278 -0.51399374 -0.10948922 -0.030496 0.04070162 -0.01228092 0.14699243 -0.31452274 0.23970784 0.0749963 0.16168852 -0.24352035 0.23118651 -0.02809605 0.08916381 -0.37995118 -0.19590016 -0.3808613 -0.08341485 0.05747883 -0.12807801 0.02152599 0.11373186 -0.27651224 0.28613955 0.19567779 0.22811756 0.10883942 0.07838622 -0.27940416 0.20899281 -0.05939679 -0.02991473 -0.07415871 -0.25878057 0.11541937 -0.17023876 -0.51725554 0.07697975 0.11377471
 0.06232793 -0.03858422 0.29855832 0.13801116 -0.08689456 -0.19435966 -0.16040412 0.08045926 -0.18233831 0.00229423 0.01780995 0.19513153 -0.16392955 -0.08217404 0.2916903 0.29483333 -0.103256 -0.10726798 -0.22596116 0.0369034 -0.0976513 -0.24125412 -0.09900971 -0.12171968 0.00925224 0.13746898 -0.11727422 -0.04045716 -0.16611268 0.04084139 0.3173144 -0.2060123 -0.18402295 0.16845891 0.06549734 -0.11162789 0.05103347 0.04817972 -0.15691598 -0.42418107 0.1382998 0.15920097 0.10334201 0.01930319 0.25682318 -0.09029385 -0.07771786 0.17113218 -0.27160454 0.08807397 -0.46612164 -0.01272501 0.07241852 -0.38721424 -0.2575423 0.21933657 -0.3812467 0.01663832 0.16885898 0.52933025 -0.16475387 0.15063699 -0.09573445 0.20060597 0.10747729 0.04342919 0.1321824 -0.31651834 0.29138595 -0.12383059 -0.35478428 -0.45872268 0.31199273 -0.20591828 -0.29003987 -0.30059084 -0.09321164 0.14011821 0.46786126 -0.24659589 -0.10906894 -0.24380209 -0.01724067 -0.23975833 0.23075154 0.5319335 -0.22680075 0.32398456 -0.09013416 0.4386527 0.04117776 0.08901327 -0.016791 0.2935918 -0.13248278 0.08798022 0.2575461 0.01663289 0.06763642 -0.21004683 0.1377037 0.10621413 -0.27673224 0.15788208 0.00994393 0.06979936 0.25433597 0.12320025 0.07505188 0.05915051 -0.06475786 -0.0118069 -0.19214101 -0.03434775 0.12449558 0.08045421 0.04903721 0.19242099 0.08600046 0.22037938 -0.51053715 0.07556376 -0.00106561 -0.17090231 0.02230009 0.3839917 0.08795029 0.02868792
-0.37339333 -0.11984254 0.03437205 -0.14471792 -0.03266656 -0.11724707 0.03112255 0.14250413 0.15126373 0.09784941 0.20336984 -0.46454433 0.02806173 -0.02984183 0.14235641 -0.09564243 -0.17611748 0.22788389 0.03842549 0.0107033 0.11655573 0.09328233 0.25143126 -0.3954656 -0.11457404 0.09785684 0.03021241 0.1279339 -0.16074637 -0.04589652 -0.26500824 -0.00183238 0.24854274 -0.12490965 -0.1180006 -0.2616418 -0.1548727 0.10979099 0.1757783 -0.09963458 0.21085106 0.03413919 0.014176 -0.23365122 0.1393897 0.08851587 -0.492316 0.2682389 0.28807998 0.00657038 0.21553801 -0.3227511 0.03689685 0.08526936 0.16907361 0.12908031 0.08543889 0.0754222 -0.2548268 -0.02000154 -0.45105124 -0.2625215 -0.00413136 0.04881621 0.11637872 -0.36822462 -0.12641728 -0.30710608 -0.04438363 0.05528245 0.04401344 -0.41297174 0.03706966 -0.01452283 -0.06107141 -0.28812662 -0.09337547 0.23555516 0.46108314 0.02967449 0.11990499 0.04797082 -0.06297296 0.07490931 -0.03240094 -0.02270989 0.11171854 0.04487636 -0.39300314 -0.26723096 0.04295729 -0.3303847 -0.01170723 -0.15854026 -0.1750914 0.23422003 -0.39352605 -0.13613668 0.02960994 0.07406744 0.04753913 -0.10706013 0.09518377 -0.03921752 -0.00723397 0.03657536 0.08515503 0.17450179 0.12647212 0.09683967 0.22115096 0.18588483 -0.15780155 -0.41374955 0.11137725 0.22112063 0.13435376 -0.6267863 -0.04797982 -0.12884486 -0.08687069 -0.2215089 0.24126208 -0.27520728 -0.07366799 0.3213369 0.20728616 -0.09838196
 0.1830734 0.2722468 -0.1206395 0.04785948 -0.1515523 0.05768786 -0.21840872 -0.31084228 -0.09176014 0.10100718 0.06270129 0.2245825 -0.34372306 -0.30004215 -0.12750451 -0.13673273 -0.01259715 0.04381065 0.15990855 -0.00217776 0.23342492 -0.04497614 -0.21532904 0.18446264 -0.31799424 -0.26275352 0.16354324 -0.07514553 -0.02696877 -0.01190058 -0.16980283 -0.19754852 0.3125645 0.01416022 0.15291691 0.14043999 -0.28992134 0.15046014 0.06985188 0.02467506 0.0005395 -0.14151448 0.12225717 0.26851657 -0.14292203 0.11966213 0.15077625 -0.02398171 0.17938432 0.36634257 0.17266524 0.08720095 -0.18973714 -0.20454526 -0.3102672 0.12161142 0.20595348 0.14751637 0.15384969 0.0360444 -0.00448286 0.20365638 -0.09941123 -0.2802486 -0.19536163 0.07203021 0.34586722 0.2541535 0.29041967 -0.07724927 0.17954318 -0.02549696 -0.32243222 0.22790673 0.02973577 0.20955667 0.3552816 -0.28179568 -0.18528096 -0.09194529 -0.17327404 -0.02917369 -0.21287993 -0.25554958 -0.2432707 0.32899958 -0.12994026 -0.30288213 0.25767004 -0.0501264 0.11280082 0.11977597 -0.02267216 -0.44417325 0.11142397 -0.14612032 -0.08638368 -0.19419669 -0.11877057 0.10758255 0.14096697 0.150227 -0.23967923 -0.1642383 -0.2555769 -0.25197962 -0.01849541 -0.18357205 -0.3567041 -0.21841687 -0.17431962 -0.14684188 0.0835071 0.37248686 0.02205713 -0.0349649 0.032614 -0.18142092 0.01288378 -0.18782397 0.15372036 0.1237995 -0.06600205 0.15048642 -0.0021139 0.04437592 0.16053091 0.0107665 
-0.00968549 -0.4231613 0.04878305 0.02457662 -0.06002888 0.06291068 -0.23504947 -0.26251855 0.16660826 0.14219259 -0.27710986 -0.16026296 -0.21002762 0.19056934 0.09329683 0.25699833 0.13610852 0.07473113 0.00925237 0.1998036 -0.29072338 0.16557983 0.15723556 0.00484958 -0.00268514 0.05715754 0.06914134 -0.3432878 -0.11614762 0.14663938 0.02813075 -0.36480165 -0.5940837 -0.04612196 0.16250099 0.20333503 0.10528434 0.08113695 -0.01557759 -0.1788494 -0.4751244 -0.01850624 -0.00580977 -0.08166993 0.03295816 -0.10041965 -0.10742515 0.0280445 -0.0872026 -0.02232992 -0.19216028 0.01837857 -0.04045324 0.05692462 -0.14121632 -0.4920865 -0.20298946 -0.4482302 -0.18554813 -0.29017484 0.07114866 -0.21757062 0.21295904 0.18228213 -0.48383304 0.04643644 0.12403879 -0.5328423 -0.20787379 -0.08316126 -0.37522715 0.07339157 -0.47347373 -0.0101072 0.16170987 -0.4763922 -0.36803982 -0.02011421 -0.07661147 0.10145302 -0.09459501 0.17114955 0.09427587 0.10514481 -0.6325983 0.04635116 -0.01420997 -0.2413487 -0.17201097 -0.614286 -0.07988766 0.07052113 0.06638282 -0.13332039 -0.13901407 -0.01801598 -0.25472292 0.17109913 0.14811127 -0.15451722 -0.47239956 -0.1638788 -0.05133368 0.06574485 0.13358694 -0.18579593 -0.50025153 -0.09036553 0.19081096 0.1324316 0.13167709 0.18495585 -0.19486779 -0.340128 0.18304315 0.0696547 0.02348848 -0.09307434 -0.66489273 0.1184094 0.05550786 0.0739788 0.1591173 -0.03017667 0.09758344 -0.0975602 0.1845406 -0.05679236
 0.1676512 -0.06039498 -0.16800235 -0.18145216 0.11740474 0.06592739 0.21604379 0.07181987 -0.27504528 0.08568405 0.21674237 0.12316216 0.15126812 0.09956324 0.2542758 -0.17192374 0.06389755 -0.26136935 0.12013288 -0.00637813 -0.31103575 -0.12778792 -0.0521292 0.13767366 0.1799728 -0.27236187 0.0441681 0.15710126 -0.06817105 0.03392485 0.08400563 -0.21698302 -0.3082705 0.10240612 -0.02966539 -0.1224795 -0.1645838 0.07813665 -0.06140004 0.203056 0.1521211 0.01245332 0.00639898 -0.28007838 0.20087767 0.2416498 0.02143866 0.03200383 0.0836624 -0.83354205 0.16027105 0.15716511 -0.07629245 0.18238758 0.23036787 0.20365818 0.05494196 0.12518495 -0.3838041 -0.18598783 0.1145993 -0.4319555 -0.20941252 -0.00926333 0.03051094 0.1552806 -0.18642054 -0.3267871 -0.01438104 -0.13457605 0.13863468 0.1291076 0.20421898 -0.08065489 -0.12207434 -0.04187608 -0.25015756 -0.13813676 0.14602335 0.03966032 -0.09525196 0.01011949 0.10204231 -0.17976165 0.08255242 -0.30261075 0.08582805 -0.39435908 -0.43712413 -0.03253346 -0.34993342 0.18724175 -0.5399286 0.07507449 0.07117442 0.03882347 0.17416649 -0.08118862 0.15166283 0.11312258 -0.2468753 0.17248724 0.08242113 -0.13429078 0.1540759 0.13147779 -0.35945794 -0.5990503 -0.10052533 0.18670413 0.04085227 -0.27610725 -0.45563766 0.22276993 -0.10879647 -0.52620876 0.12772173 0.14743331 0.20923111 -0.09320425 0.10132768 0.14626037 -0.13732448 0.02473552 0.0107837 0.02569802 -0.44028395 -0.15845487
